{"learner":{"attributes":{"scikit_learn":"{\"_estimator_type\": \"classifier\"}"},"feature_names":["Type_encoded","Start","Stop"],"feature_types":["int","int","int"],"gradient_booster":{"model":{"cats":{"enc":[],"feature_segments":[],"sorted_idx":[]},"gbtree_model_param":{"num_parallel_tree":"1","num_trees":"100"},"iteration_indptr":[0,1,2,3,4,5,6,7,8,9,10,11,12,13,14,15,16,17,18,19,20,21,22,23,24,25,26,27,28,29,30,31,32,33,34,35,36,37,38,39,40,41,42,43,44,45,46,47,48,49,50,51,52,53,54,55,56,57,58,59,60,61,62,63,64,65,66,67,68,69,70,71,72,73,74,75,76,77,78,79,80,81,82,83,84,85,86,87,88,89,90,91,92,93,94,95,96,97,98,99,100],"tree_info":[0,0,0,0,0,0,0,0,0,0,0,0,0,0,0,0,0,0,0,0,0,0,0,0,0,0,0,0,0,0,0,0,0,0,0,0,0,0,0,0,0,0,0,0,0,0,0,0,0,0,0,0,0,0,0,0,0,0,0,0,0,0,0,0,0,0,0,0,0,0,0,0,0,0,0,0,0,0,0,0,0,0,0,0,0,0,0,0,0,0,0,0,0,0,0,0,0,0,0,0],"trees":[{"base_weights":[-1.7238952E-8,1.18552E0,-6.721441E-1,1.3325154E0,6.1666715E-1,-8.618218E-1,-6.155867E-1,1.4543614E0,1.0818282E0,4.2208886E-1,1.2601508E0,-1.1508187E0,-8.2133937E-1,-1.1759155E-1,-6.4518946E-1,1.5554032E0,1.3589511E0,9.841472E-1,1.8357431E0,8.4422386E-1,2.6870522E-1,-4.5867348E-1,1.308416E0,-4.947106E-2,-1.1971914E0,-1.334042E-1,-8.5855407E-1,-3.682495E-1,2.2678819E-2,-5.10434E-1,-6.856415E-1,1.3982594E0,1.6626889E0,1.3847288E0,1.1752304E0,1.1765305E0,8.060998E-1,1.5932906E0,1.8531725E-1,1.0812855E0,5.8016586E-1,1.8457234E-1,2.5401956E-1,-8.163085E-1,1.2600446E-1,2.0053308E0,1.2257448E0,-1.6430871E-1,-1.1435771E0,-9.5212E-2,5.5107796E-1,-1.0955286E0,-8.1929684E-1,3.2555208E-2,-7.616083E-1,3.6699182E-1,-5.4565474E-2,-6.4269835E-1,2.006654E-1,-8.0879223E-1,-6.204741E-1,1.9112226E-1,1.3663286E-1,1.8034193E-1,1.5907028E-1,1.2765439E-1,1.4500384E-1,9.785175E-2,1.27501E-1,9.318263E-2,1.3493894E-1,8.6054645E-2,4.4060692E-2,1.6162261E-1,3.205182E-2,7.2843805E-2,1.2861402E-1,6.378099E-2,4.388399E-3,-1.1501789E-1,2.9153168E-2,-1.12953775E-1,2.3313189E-2,7.490981E-2,2.0356004E-1,6.7935124E-2,1.2909405E-1,-4.825593E-2,-1.1822307E-1,4.429462E-2,7.9839E-2,-7.529036E-2,-1.158508E-1,-6.389103E-2,-8.5332654E-2,-5.9827574E-2,1.07665315E-1,-5.666822E-2,-8.26927E-2,1.7091662E-3,5.1410295E-2,-3.1638946E-2,1.293436E-2,-9.022786E-2,-5.7695318E-2,5.6888368E-2,-4.441407E-2,-7.632888E-2,-1.1045559E-1,-2.7283547E-2,-6.714484E-2],"categories":[],"categories_nodes":[],"categories_segments":[],"categories_sizes":[],"default_left":[0,0,0,0,0,0,0,0,0,0,0,0,0,0,0,0,0,0,0,0,0,0,0,0,0,0,0,0,0,0,0,0,0,0,0,0,0,0,0,0,0,0,0,0,0,0,0,0,0,0,0,0,0,0,0,0,0,0,0,0,0,0,0,0,0,0,0,0,0,0,0,0,0,0,0,0,0,0,0,0,0,0,0,0,0,0,0,0,0,0,0,0,0,0,0,0,0,0,0,0,0,0,0,0,0,0,0,0,0,0,0],"id":0,"left_children":[1,3,5,7,9,11,13,15,17,19,21,23,25,27,29,31,33,35,37,39,41,43,45,-1,47,49,51,53,55,57,59,61,63,65,67,69,71,73,-1,75,77,-1,79,81,-1,83,85,-1,87,-1,89,91,93,95,97,99,101,103,105,107,109,-1,-1,-1,-1,-1,-1,-1,-1,-1,-1,-1,-1,-1,-1,-1,-1,-1,-1,-1,-1,-1,-1,-1,-1,-1,-1,-1,-1,-1,-1,-1,-1,-1,-1,-1,-1,-1,-1,-1,-1,-1,-1,-1,-1,-1,-1,-1,-1,-1,-1],"loss_changes":[1.3227961E5,5.0216875E3,1.1359727E3,1.4563359E3,1.5439995E3,2.8370898E2,1.2030371E3,3.074922E2,1.1481367E3,6.131477E2,2.3815918E2,9.0288086E1,5.463428E2,1.6105124E2,4.195586E2,2.6052734E2,7.663867E1,4.726416E2,4.61084E0,1.5738635E2,1.6048795E2,4.9559578E1,1.5803418E2,0E0,6.4798584E1,6.150578E2,1.8748047E2,2.5914423E2,7.815357E1,1.6732417E3,4.7495117E2,1.0109668E2,9.09375E1,1.0050586E2,3.8794434E1,2.7975098E2,1.4257715E2,3.194458E0,0E0,9.512427E1,3.6953674E1,0E0,3.6310147E2,2.1945969E1,0E0,9.648071E0,8.792236E1,0E0,6.3128662E1,0E0,1.5635529E1,6.116089E1,1.06115234E2,5.374567E2,1.0092987E1,2.7706642E1,1.1562143E2,2.5546143E2,6.6282446E2,2.750244E2,6.864336E2,0E0,0E0,0E0,0E0,0E0,0E0,0E0,0E0,0E0,0E0,0E0,0E0,0E0,0E0,0E0,0E0,0E0,0E0,0E0,0E0,0E0,0E0,0E0,0E0,0E0,0E0,0E0,0E0,0E0,0E0,0E0,0E0,0E0,0E0,0E0,0E0,0E0,0E0,0E0,0E0,0E0,0E0,0E0,0E0,0E0,0E0,0E0,0E0,0E0,0E0],"parents":[2147483647,0,0,1,1,2,2,3,3,4,4,5,5,6,6,7,7,8,8,9,9,10,10,11,11,12,12,13,13,14,14,15,15,16,16,17,17,18,18,19,19,20,20,21,21,22,22,24,24,25,25,26,26,27,27,28,28,29,29,30,30,31,31,32,32,33,33,34,34,35,35,36,36,37,37,39,39,40,40,42,42,43,43,45,45,46,46,48,48,50,50,51,51,52,52,53,53,54,54,55,55,56,56,57,57,58,58,59,59,60,60],"right_children":[2,4,6,8,10,12,14,16,18,20,22,24,26,28,30,32,34,36,38,40,42,44,46,-1,48,50,52,54,56,58,60,62,64,66,68,70,72,74,-1,76,78,-1,80,82,-1,84,86,-1,88,-1,90,92,94,96,98,100,102,104,106,108,110,-1,-1,-1,-1,-1,-1,-1,-1,-1,-1,-1,-1,-1,-1,-1,-1,-1,-1,-1,-1,-1,-1,-1,-1,-1,-1,-1,-1,-1,-1,-1,-1,-1,-1,-1,-1,-1,-1,-1,-1,-1,-1,-1,-1,-1,-1,-1,-1,-1,-1],"split_conditions":[1.3E1,4E0,2.85893E7,2E0,1E1,1.728245E6,3.2944608E7,4.9595776E7,3E0,6E0,9.16819E5,7.419E3,2.16659E6,3.1096384E7,4.9595776E7,2.85893E7,1.672436E8,4.9595776E7,6.593268E6,4.9595776E7,7.419E3,1.1E1,9.88559E5,-4.947106E-2,1.58048E5,2.072241E6,5.045296E6,2.9677206E7,3.1356966E7,4.8025964E7,8.5848184E7,2.89601E5,3.3033064E7,8.668195E7,1.8971354E8,2.85893E7,1.6750821E8,6.266606E6,1.8531725E-1,2.85893E7,1.794106E8,1.8457234E-1,1.432691E6,6.34791E5,1.2600446E-1,1.222973E6,1.5134287E7,-1.6430871E-1,2.89601E5,-9.5212E-2,2.1345E6,2.588844E6,8.03212E6,2.9490198E7,3.0080124E7,3.1201124E7,3.228964E7,3.698696E7,4.8980692E7,7.826195E7,9.568653E7,1.9112226E-1,1.3663286E-1,1.8034193E-1,1.5907028E-1,1.2765439E-1,1.4500384E-1,9.785175E-2,1.27501E-1,9.318263E-2,1.3493894E-1,8.6054645E-2,4.4060692E-2,1.6162261E-1,3.205182E-2,7.2843805E-2,1.2861402E-1,6.378099E-2,4.388399E-3,-1.1501789E-1,2.9153168E-2,-1.12953775E-1,2.3313189E-2,7.490981E-2,2.0356004E-1,6.7935124E-2,1.2909405E-1,-4.825593E-2,-1.1822307E-1,4.429462E-2,7.9839E-2,-7.529036E-2,-1.158508E-1,-6.389103E-2,-8.5332654E-2,-5.9827574E-2,1.07665315E-1,-5.666822E-2,-8.26927E-2,1.7091662E-3,5.1410295E-2,-3.1638946E-2,1.293436E-2,-9.022786E-2,-5.7695318E-2,5.6888368E-2,-4.441407E-2,-7.632888E-2,-1.1045559E-1,-2.7283547E-2,-6.714484E-2],"split_indices":[0,0,2,0,0,2,2,2,0,0,2,1,2,2,2,2,1,2,1,2,1,0,1,0,1,2,2,2,2,1,2,2,1,1,1,2,2,1,0,2,2,0,2,2,0,2,2,0,2,0,1,2,2,1,1,1,1,2,1,2,1,0,0,0,0,0,0,0,0,0,0,0,0,0,0,0,0,0,0,0,0,0,0,0,0,0,0,0,0,0,0,0,0,0,0,0,0,0,0,0,0,0,0,0,0,0,0,0,0,0,0],"split_type":[0,0,0,0,0,0,0,0,0,0,0,0,0,0,0,0,0,0,0,0,0,0,0,0,0,0,0,0,0,0,0,0,0,0,0,0,0,0,0,0,0,0,0,0,0,0,0,0,0,0,0,0,0,0,0,0,0,0,0,0,0,0,0,0,0,0,0,0,0,0,0,0,0,0,0,0,0,0,0,0,0,0,0,0,0,0,0,0,0,0,0,0,0,0,0,0,0,0,0,0,0,0,0,0,0,0,0,0,0,0,0],"sum_hessian":[1.6600319E5,6.006336E4,1.0593983E5,4.7728625E4,1.2334731E4,2.4329914E4,8.1609914E4,3.2114576E4,1.561405E4,9.472169E3,2.8625632E3,2.9859905E3,2.1343924E4,4.579302E3,7.703061E4,1.5589564E4,1.6525014E4,1.3825104E4,1.7889459E3,2.5232632E3,6.9489053E3,7.795406E1,2.7846091E3,1.9788339E2,2.7881072E3,1.0956044E3,2.0248318E4,1.6425321E3,2.9367695E3,1.778802E4,5.9242594E4,6.3307695E3,9.258794E3,1.4485964E4,2.0390485E3,6.642336E3,7.1827676E3,1.2617565E2,1.6627703E3,1.3279675E3,1.1952957E3,6.29629E1,6.8859424E3,6.496172E1,1.2992344E1,2.9282745E2,2.4917817E3,2.9607553E2,2.4920315E3,4.9870615E2,5.9689825E2,2.8738066E3,1.7374512E4,8.140203E2,8.285118E2,5.3743335E2,2.3993362E3,1.4998412E4,2.7896062E3,2.0496922E4,3.8745668E4,3.6753345E2,5.9632363E3,3.1251584E3,6.1336357E3,5.460782E3,9.025182E3,6.898435E2,1.349205E3,2.7523782E3,3.8899578E3,6.250317E3,9.3245056E2,1.23677124E2,2.4985278E0,4.8946158E2,8.385059E2,1.0791141E3,1.1618154E2,1.7839488E2,6.707548E3,4.9970554E1,1.4991167E1,7.4955835E0,2.8533188E2,2.6684277E2,2.224939E3,1.3841844E2,2.353613E3,4.1725415E2,1.7964415E2,4.4823587E2,2.4255708E3,2.7606233E3,1.4613889E4,5.0770084E2,3.0631952E2,2.1037604E2,6.1813574E2,1.5940607E2,3.7802725E2,9.896669E2,1.4096693E3,3.0284656E3,1.1969947E4,1.7757037E3,1.0139026E3,1.7767031E4,2.7298914E3,4.95558E3,3.379009E4],"tree_param":{"num_deleted":"0","num_feature":"3","num_nodes":"111","size_leaf_vector":"1"}},{"base_weights":[-5.6512832E-5,1.0682675E0,-6.0685635E-1,1.201029E0,5.551499E-1,-7.79061E-1,-5.555861E-1,1.3113687E0,9.742887E-1,3.7982377E-1,1.1358957E0,-1.0592486E0,-7.44199E-1,-1.05981946E-1,-5.8236E-1,1.4032168E0,1.2247261E0,8.859003E-1,1.6590666E0,7.598968E-1,2.4176548E-1,-4.1410077E-1,1.1793108E0,-4.463317E-2,-1.10786E0,-2.8121632E-1,-7.7593446E-1,-3.3237585E-1,2.0416731E-2,-4.6050325E-1,-6.189636E-1,1.2604092E0,1.5008489E0,1.2480273E0,1.0580914E0,1.0596379E0,7.2526896E-1,1.4391453E0,1.6749018E0,9.7374564E-1,5.219259E-1,3.983896E-1,9.355278E-2,-7.394824E-1,1.1439879E-1,1.8154348E0,1.104184E0,-1.495915E-1,-1.0552347E0,-8.71617E-2,4.959019E-1,-9.919447E-1,-7.402227E-1,2.9352447E-2,-6.8800586E-1,-2.6120996E-2,5.270359E-1,-6.173092E-1,3.5068575E-2,-7.306964E-1,-5.599043E-1,1.8031314E-1,1.2351634E-1,1.6293257E-1,1.4352171E-1,1.15000896E-1,1.307196E-1,6.407644E-2,1.099782E-1,8.3856314E-2,1.2160194E-1,7.7428505E-2,3.9634567E-2,1.4597026E-1,2.9751007E-2,1.7339797E-1,1.6398422E-1,6.5542184E-2,1.15882814E-1,2.7579496E-2,6.480356E-2,8.27791E-3,7.010688E-2,-8.551245E-3,1.7275032E-2,-1.0250046E-1,2.1118637E-2,6.827265E-2,1.8428622E-1,4.800606E-2,1.1515017E-1,-4.354439E-2,-1.09679356E-1,3.985084E-2,7.1871206E-2,-6.800813E-2,-1.0494383E-1,-5.7659306E-2,-7.71132E-2,-5.3988934E-2,9.695766E-2,-5.1144302E-2,-7.472629E-2,5.4139993E-3,-5.1610023E-2,9.755211E-2,-2.0822031E-2,-5.7565507E-2,-9.675241E-2,1.706407E-2,-4.004292E-2,-6.893474E-2,-1.00010715E-1,-2.4577666E-2,-6.0605288E-2],"categories":[],"categories_nodes":[],"categories_segments":[],"categories_sizes":[],"default_left":[0,0,0,0,0,0,0,0,0,0,0,0,0,0,0,0,0,0,0,0,0,0,0,0,0,0,0,0,0,0,0,0,0,0,0,0,0,0,0,0,0,0,0,0,0,0,0,0,0,0,0,0,0,0,0,0,0,0,0,0,0,0,0,0,0,0,0,0,0,0,0,0,0,0,0,0,0,0,0,0,0,0,0,0,0,0,0,0,0,0,0,0,0,0,0,0,0,0,0,0,0,0,0,0,0,0,0,0,0,0,0,0,0,0,0],"id":1,"left_children":[1,3,5,7,9,11,13,15,17,19,21,23,25,27,29,31,33,35,37,39,41,43,45,-1,47,49,51,53,55,57,59,61,63,65,67,69,71,73,75,77,79,81,83,85,-1,87,89,-1,91,-1,93,95,97,99,101,103,105,107,109,111,113,-1,-1,-1,-1,-1,-1,-1,-1,-1,-1,-1,-1,-1,-1,-1,-1,-1,-1,-1,-1,-1,-1,-1,-1,-1,-1,-1,-1,-1,-1,-1,-1,-1,-1,-1,-1,-1,-1,-1,-1,-1,-1,-1,-1,-1,-1,-1,-1,-1,-1,-1,-1,-1,-1],"loss_changes":[1.073633E5,4.0862422E3,9.321211E2,1.191125E3,1.2553818E3,2.358877E2,9.7974414E2,2.5338672E2,9.4306055E2,4.969961E2,1.9291748E2,7.9321045E1,3.164502E2,1.3094969E2,3.4236523E2,2.1497461E2,6.2759766E1,3.8501172E2,3.7978516E0,1.2794861E2,1.613417E2,4.072121E1,1.3094287E2,0E0,4.9093506E1,6.3548065E2,1.5485156E2,2.109287E2,6.926796E1,1.3792715E3,3.8939844E2,8.4393555E1,7.5515625E1,8.243555E1,3.4635986E1,2.2849072E2,1.1554614E2,2.5428467E0,5.888672E-1,7.750098E1,3.6971832E1,3.2280286E2,5.068769E1,1.804255E1,0E0,7.8224487E0,7.3000244E1,0E0,5.5890625E1,0E0,1.2694778E1,5.053882E1,8.711426E1,4.3605118E2,8.267883E0,1.0586276E2,8.1708435E1,1.9613037E2,2.5200418E2,2.2682812E2,5.6013477E2,0E0,0E0,0E0,0E0,0E0,0E0,0E0,0E0,0E0,0E0,0E0,0E0,0E0,0E0,0E0,0E0,0E0,0E0,0E0,0E0,0E0,0E0,0E0,0E0,0E0,0E0,0E0,0E0,0E0,0E0,0E0,0E0,0E0,0E0,0E0,0E0,0E0,0E0,0E0,0E0,0E0,0E0,0E0,0E0,0E0,0E0,0E0,0E0,0E0,0E0,0E0,0E0,0E0,0E0],"parents":[2147483647,0,0,1,1,2,2,3,3,4,4,5,5,6,6,7,7,8,8,9,9,10,10,11,11,12,12,13,13,14,14,15,15,16,16,17,17,18,18,19,19,20,20,21,21,22,22,24,24,25,25,26,26,27,27,28,28,29,29,30,30,31,31,32,32,33,33,34,34,35,35,36,36,37,37,38,38,39,39,40,40,41,41,42,42,43,43,45,45,46,46,48,48,50,50,51,51,52,52,53,53,54,54,55,55,56,56,57,57,58,58,59,59,60,60],"right_children":[2,4,6,8,10,12,14,16,18,20,22,24,26,28,30,32,34,36,38,40,42,44,46,-1,48,50,52,54,56,58,60,62,64,66,68,70,72,74,76,78,80,82,84,86,-1,88,90,-1,92,-1,94,96,98,100,102,104,106,108,110,112,114,-1,-1,-1,-1,-1,-1,-1,-1,-1,-1,-1,-1,-1,-1,-1,-1,-1,-1,-1,-1,-1,-1,-1,-1,-1,-1,-1,-1,-1,-1,-1,-1,-1,-1,-1,-1,-1,-1,-1,-1,-1,-1,-1,-1,-1,-1,-1,-1,-1,-1,-1,-1,-1,-1],"split_conditions":[1.3E1,4E0,2.85893E7,2E0,1E1,1.496264E6,3.2944608E7,4.9595776E7,3E0,6E0,9.16819E5,7.419E3,2.16659E6,3.1096384E7,4.9595776E7,2.85893E7,1.6750821E8,4.9595776E7,6.593268E6,4.9595776E7,5.040585E7,1.1E1,9.88559E5,-4.463317E-2,1.58048E5,2.072241E6,5.045296E6,2.9677206E7,3.2899244E7,4.7205704E7,8.5848184E7,7.419E3,3.3033064E7,8.668195E7,1.7266021E8,2.85893E7,1.6750821E8,6.266606E6,4.3105184E7,2.85893E7,8.668195E7,2.7550174E7,8.704125E7,6.34791E5,1.1439879E-1,1.222973E6,8.733955E6,-1.495915E-1,2.89601E5,-8.71617E-2,2.1345E6,2.588844E6,8.03212E6,2.9490198E7,3.0080124E7,3.2595756E7,3.29149E7,4.5707404E7,4.8980692E7,7.826195E7,9.568653E7,1.8031314E-1,1.2351634E-1,1.6293257E-1,1.4352171E-1,1.15000896E-1,1.307196E-1,6.407644E-2,1.099782E-1,8.3856314E-2,1.2160194E-1,7.7428505E-2,3.9634567E-2,1.4597026E-1,2.9751007E-2,1.7339797E-1,1.6398422E-1,6.5542184E-2,1.15882814E-1,2.7579496E-2,6.480356E-2,8.27791E-3,7.010688E-2,-8.551245E-3,1.7275032E-2,-1.0250046E-1,2.1118637E-2,6.827265E-2,1.8428622E-1,4.800606E-2,1.1515017E-1,-4.354439E-2,-1.09679356E-1,3.985084E-2,7.1871206E-2,-6.800813E-2,-1.0494383E-1,-5.7659306E-2,-7.71132E-2,-5.3988934E-2,9.695766E-2,-5.1144302E-2,-7.472629E-2,5.4139993E-3,-5.1610023E-2,9.755211E-2,-2.0822031E-2,-5.7565507E-2,-9.675241E-2,1.706407E-2,-4.004292E-2,-6.893474E-2,-1.00010715E-1,-2.4577666E-2,-6.0605288E-2],"split_indices":[0,0,2,0,0,1,2,2,0,0,2,1,2,2,2,2,2,2,1,2,1,0,1,0,1,2,2,2,1,2,2,1,1,1,2,2,2,1,1,2,1,2,2,2,0,2,2,0,2,0,1,2,2,1,1,1,1,1,1,2,1,0,0,0,0,0,0,0,0,0,0,0,0,0,0,0,0,0,0,0,0,0,0,0,0,0,0,0,0,0,0,0,0,0,0,0,0,0,0,0,0,0,0,0,0,0,0,0,0,0,0,0,0,0,0],"split_type":[0,0,0,0,0,0,0,0,0,0,0,0,0,0,0,0,0,0,0,0,0,0,0,0,0,0,0,0,0,0,0,0,0,0,0,0,0,0,0,0,0,0,0,0,0,0,0,0,0,0,0,0,0,0,0,0,0,0,0,0,0,0,0,0,0,0,0,0,0,0,0,0,0,0,0,0,0,0,0,0,0,0,0,0,0,0,0,0,0,0,0,0,0,0,0,0,0,0,0,0,0,0,0,0,0,0,0,0,0,0,0,0,0,0,0],"sum_hessian":[1.6561594E5,5.999274E4,1.05623195E5,4.766007E4,1.2332668E4,2.4229129E4,8.139407E4,3.20558E4,1.56042705E4,9.474105E3,2.8585618E3,2.6778396E3,2.1551291E4,4.5748813E3,7.681919E4,1.5553083E4,1.6502717E4,1.3822422E4,1.7818486E3,2.5232153E3,6.9508906E3,7.765352E1,2.7809082E3,1.975252E2,2.4803142E3,1.3831174E3,2.0168172E4,1.6385066E3,2.9363748E3,1.7748004E4,5.9071184E4,6.3210776E3,9.232006E3,1.4472486E4,2.0302306E3,6.637625E3,7.1847964E3,1.258551E2,1.6559935E3,1.3273345E3,1.1958807E3,3.378726E3,3.5721643E3,6.4673E1,1.298052E1,2.9129044E2,2.489618E3,2.929196E2,2.1873948E3,7.8591327E2,5.972041E2,2.8574602E3,1.7310713E4,8.1274365E2,8.2576294E2,2.6902026E3,2.4617195E2,1.3481896E4,4.2661084E3,2.0422684E4,3.86485E4,2.7783722E2,6.0432407E3,3.1134602E3,6.1185454E3,5.4554604E3,9.017025E3,1.85884E2,1.8443466E3,2.7526287E3,3.8849963E3,6.2518013E3,9.3299536E2,1.2335527E2,2.4998298E0,5.986958E2,1.0572977E3,4.8967773E2,8.376568E2,4.0622644E2,7.896543E2,1.6546538E3,1.7240723E3,1.0953971E3,2.4767673E3,4.967539E1,1.4997613E1,7.498697E0,2.8379175E2,1.7623343E2,2.3133845E3,1.3817604E2,2.0492188E3,4.174981E2,1.79706E2,4.467849E2,2.4106753E3,2.7535383E3,1.4557174E4,5.065113E2,3.0623233E2,2.0991849E2,6.158444E2,2.3123225E3,3.778802E2,1.5270158E2,9.347036E1,1.2051187E4,1.430709E3,3.253797E3,1.0123114E3,1.7708375E4,2.7143083E3,4.951379E3,3.369712E4],"tree_param":{"num_deleted":"0","num_feature":"3","num_nodes":"115","size_leaf_vector":"1"}},{"base_weights":[1.5598465E-5,9.6960175E-1,-5.4907537E-1,1.1937305E0,7.139746E-1,-7.0660186E-1,-5.023154E-1,1.2796994E0,1.1129111E0,8.5529816E-1,4.535622E-1,-9.655166E-1,-6.74554E-1,-1.038083E-1,-5.2712756E-1,1.1438909E0,1.3700747E0,1.1345699E0,9.5913994E-1,1.008725E0,7.0910805E-1,2.1762335E-1,1.0320294E0,-4.0305357E-2,-1.0105757E0,-2.545889E-1,-7.0338625E-1,-3.0073527E-1,-8.3554175E-4,-4.1971865E-1,-5.6088036E-1,1.5934509E0,1.1157094E0,1.4847856E0,1.3094898E0,1.0435646E0,1.1897017E0,7.869895E-1,1.0468047E0,8.004953E-1,1.1508641E0,7.517543E-1,4.2608768E-1,1.0732493E0,1.9440988E-1,-3.7555715E-1,1.0714825E0,-1.3772838E-1,-9.6133655E-1,-7.916035E-2,4.4694373E-1,-9.0262866E-1,-6.7058396E-1,2.6605707E-2,-6.2297374E-1,3.2482442E-1,-6.8738095E-2,-5.6170356E-1,-4.439701E-2,-6.6771203E-1,-5.0484324E-1,1.6590378E-1,1.3732748E-1,1.135846E-1,5.456413E-2,1.3985138E-1,1.5308778E-1,1.2019056E-1,1.526532E-1,1.08017586E-1,8.383136E-2,1.3603264E-1,1.16875686E-1,5.9571933E-2,8.6035565E-2,1.1550271E-1,8.533442E-2,1.1610806E-1,7.128879E-2,1.3886365E-1,1.0413285E-1,5.892955E-2,8.496531E-2,1.9841641E-2,5.589165E-2,2.5219867E-2,1.9523399E-1,2.8970066E-2,-7.2283666E-3,-6.726318E-2,1.045557E-1,1.6729753E-1,1.0014912E-1,-8.60638E-2,-1.1961033E-1,3.5886828E-2,6.488656E-2,-6.1567467E-2,-9.558497E-2,-5.211773E-2,-6.988793E-2,-4.8787177E-2,8.776943E-2,-4.621538E-2,-6.771093E-2,1.001075E-3,4.5714375E-2,-2.9043505E-2,6.8926006E-3,-7.9961024E-2,-5.0142117E-2,1.5353299E-2,-4.116596E-2,-6.075516E-2,-8.120168E-2,-1.853765E-2,-5.4798823E-2],"categories":[],"categories_nodes":[],"categories_segments":[],"categories_sizes":[],"default_left":[0,0,0,0,0,0,0,0,0,0,0,0,0,0,0,0,0,0,0,0,0,0,0,0,0,0,0,0,0,0,0,0,0,0,0,0,0,0,0,0,0,0,0,0,0,0,0,0,0,0,0,0,0,0,0,0,0,0,0,0,0,0,0,0,0,0,0,0,0,0,0,0,0,0,0,0,0,0,0,0,0,0,0,0,0,0,0,0,0,0,0,0,0,0,0,0,0,0,0,0,0,0,0,0,0,0,0,0,0,0,0,0,0,0,0,0,0],"id":2,"left_children":[1,3,5,7,9,11,13,15,17,19,21,23,25,27,29,31,33,35,37,39,41,43,45,-1,47,49,51,53,55,57,59,61,63,65,67,69,71,73,75,77,79,81,83,85,87,89,91,-1,93,-1,95,97,99,101,103,105,107,109,111,113,115,-1,-1,-1,-1,-1,-1,-1,-1,-1,-1,-1,-1,-1,-1,-1,-1,-1,-1,-1,-1,-1,-1,-1,-1,-1,-1,-1,-1,-1,-1,-1,-1,-1,-1,-1,-1,-1,-1,-1,-1,-1,-1,-1,-1,-1,-1,-1,-1,-1,-1,-1,-1,-1,-1,-1,-1],"loss_changes":[8.764183E4,3.4092188E3,7.738008E2,2.1890625E2,1.02302637E3,1.9894238E2,8.0132227E2,1.8695508E2,5.3378906E1,4.035713E2,1.3352084E3,6.66814E1,2.59042E2,9.635437E1,2.7636328E2,7.605322E1,6.2115234E1,7.065039E1,2.9743652E1,2.5931055E2,1.1112451E2,1.3785669E2,1.5780762E2,0E0,4.2916016E1,5.1907697E2,1.3031738E2,1.7211159E2,6.904062E1,9.723508E2,3.471797E2,2.9211426E0,6.57793E1,1.049707E1,1.3920801E2,3.9776855E1,3.0273438E1,9.134247E0,2.7049194E1,1.11954346E2,1.3458838E2,1.2710156E2,3.6524323E1,1.3187204E2,1.7204013E2,3.3641464E1,1.1440845E2,0E0,5.0114624E1,0E0,1.0395798E1,4.2614258E1,7.236719E1,3.5523428E2,6.8452454E0,2.243443E1,7.886673E1,1.8946143E2,3.6420032E2,1.7287402E2,5.247871E2,0E0,0E0,0E0,0E0,0E0,0E0,0E0,0E0,0E0,0E0,0E0,0E0,0E0,0E0,0E0,0E0,0E0,0E0,0E0,0E0,0E0,0E0,0E0,0E0,0E0,0E0,0E0,0E0,0E0,0E0,0E0,0E0,0E0,0E0,0E0,0E0,0E0,0E0,0E0,0E0,0E0,0E0,0E0,0E0,0E0,0E0,0E0,0E0,0E0,0E0,0E0,0E0,0E0,0E0,0E0,0E0],"parents":[2147483647,0,0,1,1,2,2,3,3,4,4,5,5,6,6,7,7,8,8,9,9,10,10,11,11,12,12,13,13,14,14,15,15,16,16,17,17,18,18,19,19,20,20,21,21,22,22,24,24,25,25,26,26,27,27,28,28,29,29,30,30,31,31,32,32,33,33,34,34,35,35,36,36,37,37,38,38,39,39,40,40,41,41,42,42,43,43,44,44,45,45,46,46,48,48,50,50,51,51,52,52,53,53,54,54,55,55,56,56,57,57,58,58,59,59,60,60],"right_children":[2,4,6,8,10,12,14,16,18,20,22,24,26,28,30,32,34,36,38,40,42,44,46,-1,48,50,52,54,56,58,60,62,64,66,68,70,72,74,76,78,80,82,84,86,88,90,92,-1,94,-1,96,98,100,102,104,106,108,110,112,114,116,-1,-1,-1,-1,-1,-1,-1,-1,-1,-1,-1,-1,-1,-1,-1,-1,-1,-1,-1,-1,-1,-1,-1,-1,-1,-1,-1,-1,-1,-1,-1,-1,-1,-1,-1,-1,-1,-1,-1,-1,-1,-1,-1,-1,-1,-1,-1,-1,-1,-1,-1,-1,-1,-1,-1,-1],"split_conditions":[1.3E1,2E0,2.85893E7,4.9595776E7,6E0,1.496264E6,3.3033064E7,2.7550174E7,1.672436E8,4.945936E7,1E1,7.419E3,2.16659E6,3.1096384E7,5.040585E7,2.89601E5,3.3033064E7,8.668195E7,1.8971354E8,2.85893E7,1.6750821E8,1.58048E5,9.16819E5,-4.0305357E-2,1.58048E5,2.072241E6,5.045296E6,2.9677206E7,3.1356966E7,4.7205704E7,8.704125E7,7.419E3,2.5967356E7,3.1201124E7,4.7205704E7,7.749892E7,9.008574E7,1.7266021E8,2.2010098E8,2.337289E6,3.3033064E7,8.5848184E7,1.8971354E8,9.16819E5,8E0,1.1E1,9.88559E5,-1.3772838E-1,1.222973E6,-7.916035E-2,2.1345E6,2.588844E6,8.03212E6,2.9490198E7,3.0080124E7,3.1201124E7,3.228964E7,3.672249E7,4.8980692E7,7.404252E7,9.568653E7,1.6590378E-1,1.3732748E-1,1.135846E-1,5.456413E-2,1.3985138E-1,1.5308778E-1,1.2019056E-1,1.526532E-1,1.08017586E-1,8.383136E-2,1.3603264E-1,1.16875686E-1,5.9571933E-2,8.6035565E-2,1.1550271E-1,8.533442E-2,1.1610806E-1,7.128879E-2,1.3886365E-1,1.0413285E-1,5.892955E-2,8.496531E-2,1.9841641E-2,5.589165E-2,2.5219867E-2,1.9523399E-1,2.8970066E-2,-7.2283666E-3,-6.726318E-2,1.045557E-1,1.6729753E-1,1.0014912E-1,-8.60638E-2,-1.1961033E-1,3.5886828E-2,6.488656E-2,-6.1567467E-2,-9.558497E-2,-5.211773E-2,-6.988793E-2,-4.8787177E-2,8.776943E-2,-4.621538E-2,-6.771093E-2,1.001075E-3,4.5714375E-2,-2.9043505E-2,6.8926006E-3,-7.9961024E-2,-5.0142117E-2,1.5353299E-2,-4.116596E-2,-6.075516E-2,-8.120168E-2,-1.853765E-2,-5.4798823E-2],"split_indices":[0,0,2,2,0,1,1,2,1,1,0,1,2,2,1,2,1,1,1,2,2,1,2,0,1,2,2,2,2,2,2,1,1,1,2,1,1,2,1,1,1,2,1,2,0,0,1,0,2,0,1,2,2,1,1,1,1,1,1,1,1,0,0,0,0,0,0,0,0,0,0,0,0,0,0,0,0,0,0,0,0,0,0,0,0,0,0,0,0,0,0,0,0,0,0,0,0,0,0,0,0,0,0,0,0,0,0,0,0,0,0,0,0,0,0,0,0],"split_type":[0,0,0,0,0,0,0,0,0,0,0,0,0,0,0,0,0,0,0,0,0,0,0,0,0,0,0,0,0,0,0,0,0,0,0,0,0,0,0,0,0,0,0,0,0,0,0,0,0,0,0,0,0,0,0,0,0,0,0,0,0,0,0,0,0,0,0,0,0,0,0,0,0,0,0,0,0,0,0,0,0,0,0,0,0,0,0,0,0,0,0,0,0,0,0,0,0,0,0,0,0,0,0,0,0,0,0,0,0,0,0,0,0,0,0,0,0],"sum_hessian":[1.6461728E5,5.9518535E4,1.0509874E5,3.1711164E4,2.7807371E4,2.405325E4,8.104549E4,1.5358849E4,1.6352315E4,1.8023752E4,9.783619E3,2.6461177E3,2.1407133E4,4.7506562E3,7.6294836E4,6.142319E3,9.21653E3,1.4327845E4,2.0244711E3,8.791331E3,9.232421E3,6.9502163E3,2.833402E3,1.9699611E2,2.4491216E3,1.3758978E3,2.0031234E4,1.6305131E3,3.1201433E3,1.8245867E4,5.804897E4,3.5905197E2,5.783267E3,3.1772478E3,6.039282E3,5.412853E3,8.914991E3,6.86447E2,1.338024E3,3.5691958E3,5.2221353E3,8.021991E3,1.2104296E3,1.8238664E2,6.76783E3,7.701986E1,2.7563823E3,2.867297E2,2.1623918E3,7.792575E2,5.966403E2,2.8279087E3,1.7203326E4,8.093077E2,8.212053E2,5.376751E2,2.5824683E3,1.3237572E4,5.0082954E3,1.9968752E4,3.808022E4,2.7160898E2,8.744299E1,5.5849946E3,1.9827225E2,1.1173068E3,2.0599412E3,4.0421787E3,1.9971034E3,4.5898794E3,8.229736E2,9.6771045E2,7.947281E3,1.9283458E2,4.9361246E2,8.548487E2,4.8317535E2,6.9526965E2,2.8739263E3,1.6432982E3,3.5788367E3,3.0190432E3,5.0029478E3,4.4691025E2,7.6351935E2,9.49719E1,8.7414734E1,4.986165E3,1.7816648E3,6.4138756E1,1.2881101E1,2.8492136E2,2.471461E3,1.5165598E3,6.45832E2,4.1736777E2,1.7927258E2,4.4439847E2,2.3835103E3,2.7423662E3,1.446096E4,5.0466672E2,3.0464096E2,2.0921866E2,6.119867E2,1.594316E2,3.7824353E2,9.888673E2,1.593601E3,2.6736504E3,1.0563922E4,3.2547722E3,1.753523E3,1.4096957E4,5.8717954E3,4.531569E3,3.354865E4],"tree_param":{"num_deleted":"0","num_feature":"3","num_nodes":"117","size_leaf_vector":"1"}},{"base_weights":[1.494373E-4,8.844528E-1,-4.9753815E-1,9.98749E-1,4.4977558E-1,-6.7714614E-1,-4.6298912E-1,1.0942156E0,8.051057E-1,3.038466E-1,9.4262975E-1,-8.837148E-1,-6.3930106E-1,-3.7606132E-1,-5.0800234E-1,1.1763501E0,1.0174043E0,7.22649E-1,1.4570103E0,6.03979E-1,1.959767E-1,-2.798704E-1,9.8082453E-1,-3.6419876E-2,-9.259016E-1,-2.3095097E-1,-6.8261635E-1,-4.3397656E-1,5.728638E-2,-6.0593706E-1,-4.5677683E-1,1.0486767E0,1.2646738E0,1.0377619E0,8.7292075E-1,8.7108546E-1,5.86862E-1,1.2385662E0,1.4729255E0,7.8823984E-1,4.0148443E-1,1.6239601E-1,1.8281133E-1,-5.098884E-1,9.6034706E-2,1.5824622E-1,9.1078204E-1,-1.2786354E-1,-8.792063E-1,-7.208098E-2,4.032686E-1,-8.242643E-1,-6.433578E-1,1.1993043E-1,-4.4645774E-1,4.7950745E-1,-3.7195557E-1,-5.507187E-1,-7.3886716E-1,-1.670217E-1,-4.9608752E-1,1.4818123E-1,1.0224799E-1,1.3834652E-1,1.2046408E-1,9.823184E-2,1.12056114E-1,7.11131E-2,9.548456E-2,6.827293E-2,1.0061655E-1,6.277267E-2,3.145972E-2,1.2576036E-1,2.2564834E-2,1.4765994E-1,1.0971867E-1,5.1291138E-2,9.508634E-2,4.5277398E-2,-7.29063E-3,-1.06086254E-1,2.1588592E-2,-8.778248E-2,2.6937356E-2,2.6972497E-2,9.566239E-2,-3.1055167E-2,-9.180432E-2,3.2339234E-2,5.8702793E-2,-5.5823326E-2,-8.7401465E-2,-4.7160115E-2,-7.0699416E-2,-2.0503113E-2,7.9099074E-2,-6.1995983E-2,-3.891169E-2,-3.1330392E-3,5.703081E-2,-4.7172192E-2,-5.30904E-3,-6.320955E-2,-4.210501E-2,-6.7153044E-2,-7.9891466E-2,-3.2492712E-2,2.580956E-2,-4.555008E-2,-6.1924584E-2],"categories":[],"categories_nodes":[],"categories_segments":[],"categories_sizes":[],"default_left":[0,0,0,0,0,0,0,0,0,0,0,0,0,0,0,0,0,0,0,0,0,0,0,0,0,0,0,0,0,0,0,0,0,0,0,0,0,0,0,0,0,0,0,0,0,0,0,0,0,0,0,0,0,0,0,0,0,0,0,0,0,0,0,0,0,0,0,0,0,0,0,0,0,0,0,0,0,0,0,0,0,0,0,0,0,0,0,0,0,0,0,0,0,0,0,0,0,0,0,0,0,0,0,0,0,0,0,0,0,0,0],"id":3,"left_children":[1,3,5,7,9,11,13,15,17,19,21,23,25,27,29,31,33,35,37,39,41,43,45,-1,47,49,51,53,55,57,59,61,63,65,67,69,71,73,75,77,79,-1,81,83,-1,-1,85,-1,87,-1,89,91,93,95,97,99,101,103,105,107,109,-1,-1,-1,-1,-1,-1,-1,-1,-1,-1,-1,-1,-1,-1,-1,-1,-1,-1,-1,-1,-1,-1,-1,-1,-1,-1,-1,-1,-1,-1,-1,-1,-1,-1,-1,-1,-1,-1,-1,-1,-1,-1,-1,-1,-1,-1,-1,-1,-1,-1],"loss_changes":[7.1828414E4,2.919586E3,6.477168E2,8.594219E2,8.799409E2,1.3112646E2,3.425293E2,1.954336E2,8.251826E2,3.0564172E2,1.3080176E2,5.6771973E1,2.5172803E2,7.5007275E2,2.8920703E2,1.6844727E2,4.648828E1,2.7454932E2,4.1726074E0,9.283032E1,1.3034021E2,2.4871922E1,1.1279932E2,0E0,3.8560547E1,4.2505298E2,7.1063965E1,1.8230762E2,6.388672E2,1.4502979E2,4.315083E2,6.840576E1,6.176172E1,6.3708984E1,2.578003E1,1.6514307E2,7.913281E1,2.0961914E0,5.92041E-1,5.7989807E1,2.9021576E1,0E0,2.834965E2,2.1095686E1,0E0,0E0,7.1171265E1,0E0,4.6775513E1,0E0,8.564911E0,3.6442505E1,1.0989697E2,1.2701732E2,2.5625342E2,8.244351E1,5.5584915E1,1.4749023E2,2.2963867E1,3.040388E2,1.6648926E2,0E0,0E0,0E0,0E0,0E0,0E0,0E0,0E0,0E0,0E0,0E0,0E0,0E0,0E0,0E0,0E0,0E0,0E0,0E0,0E0,0E0,0E0,0E0,0E0,0E0,0E0,0E0,0E0,0E0,0E0,0E0,0E0,0E0,0E0,0E0,0E0,0E0,0E0,0E0,0E0,0E0,0E0,0E0,0E0,0E0,0E0,0E0,0E0,0E0,0E0],"parents":[2147483647,0,0,1,1,2,2,3,3,4,4,5,5,6,6,7,7,8,8,9,9,10,10,11,11,12,12,13,13,14,14,15,15,16,16,17,17,18,18,19,19,20,20,21,21,22,22,24,24,25,25,26,26,27,27,28,28,29,29,30,30,31,31,32,32,33,33,34,34,35,35,36,36,37,37,38,38,39,39,40,40,42,42,43,43,46,46,48,48,50,50,51,51,52,52,53,53,54,54,55,55,56,56,57,57,58,58,59,59,60,60],"right_children":[2,4,6,8,10,12,14,16,18,20,22,24,26,28,30,32,34,36,38,40,42,44,46,-1,48,50,52,54,56,58,60,62,64,66,68,70,72,74,76,78,80,-1,82,84,-1,-1,86,-1,88,-1,90,92,94,96,98,100,102,104,106,108,110,-1,-1,-1,-1,-1,-1,-1,-1,-1,-1,-1,-1,-1,-1,-1,-1,-1,-1,-1,-1,-1,-1,-1,-1,-1,-1,-1,-1,-1,-1,-1,-1,-1,-1,-1,-1,-1,-1,-1,-1,-1,-1,-1,-1,-1,-1,-1,-1,-1,-1],"split_conditions":[1.3E1,4E0,1.8004912E7,2E0,1E1,1.496264E6,5.040585E7,4.9595776E7,3E0,6E0,1.222973E6,7.419E3,2.16659E6,4.8025964E7,8.704125E7,2.85893E7,1.6750821E8,4.9595776E7,6.593268E6,4.9595776E7,7.419E3,1.1E1,1.496264E6,-3.6419876E-2,1.58048E5,2.072241E6,5.045296E6,1.8690188E7,4.8980692E7,7.404252E7,9.568653E7,2.89601E5,3.3033064E7,1.076625E8,1.8971354E8,2.85893E7,1.6750821E8,6.266606E6,2.2728896E8,2.85893E7,1.794106E8,1.6239601E-1,1.432691E6,6.34791E5,9.6034706E-2,1.5824622E-1,8.733955E6,-1.2786354E-1,2.89601E5,-7.208098E-2,2.1345E6,2.588844E6,8.03212E6,1.8529108E7,2.85893E7,4.8271708E7,5.0100348E7,6.4716224E7,7.826195E7,9.380234E7,1.672436E8,1.4818123E-1,1.0224799E-1,1.3834652E-1,1.2046408E-1,9.823184E-2,1.12056114E-1,7.11131E-2,9.548456E-2,6.827293E-2,1.0061655E-1,6.277267E-2,3.145972E-2,1.2576036E-1,2.2564834E-2,1.4765994E-1,1.0971867E-1,5.1291138E-2,9.508634E-2,4.5277398E-2,-7.29063E-3,-1.06086254E-1,2.1588592E-2,-8.778248E-2,2.6937356E-2,2.6972497E-2,9.566239E-2,-3.1055167E-2,-9.180432E-2,3.2339234E-2,5.8702793E-2,-5.5823326E-2,-8.7401465E-2,-4.7160115E-2,-7.0699416E-2,-2.0503113E-2,7.9099074E-2,-6.1995983E-2,-3.891169E-2,-3.1330392E-3,5.703081E-2,-4.7172192E-2,-5.30904E-3,-6.320955E-2,-4.210501E-2,-6.7153044E-2,-7.9891466E-2,-3.2492712E-2,2.580956E-2,-4.555008E-2,-6.1924584E-2],"split_indices":[0,0,2,0,0,1,1,2,0,0,2,1,2,1,2,2,2,2,1,2,1,0,1,0,1,2,2,1,1,1,1,2,1,2,1,2,2,1,2,2,2,0,2,2,0,0,2,0,2,0,1,2,2,2,2,1,1,1,2,1,1,0,0,0,0,0,0,0,0,0,0,0,0,0,0,0,0,0,0,0,0,0,0,0,0,0,0,0,0,0,0,0,0,0,0,0,0,0,0,0,0,0,0,0,0,0,0,0,0,0,0],"split_type":[0,0,0,0,0,0,0,0,0,0,0,0,0,0,0,0,0,0,0,0,0,0,0,0,0,0,0,0,0,0,0,0,0,0,0,0,0,0,0,0,0,0,0,0,0,0,0,0,0,0,0,0,0,0,0,0,0,0,0,0,0,0,0,0,0,0,0,0,0,0,0,0,0,0,0,0,0,0,0,0,0,0,0,0,0,0,0,0,0,0,0,0,0,0,0,0,0,0,0,0,0,0,0,0,0,0,0,0,0,0,0],"sum_hessian":[1.6320477E5,5.877361E4,1.0443116E5,4.6535926E4,1.2237687E4,1.684442E4,8.7586734E4,3.1166236E4,1.5369688E4,9.443254E3,2.7944326E3,2.604731E3,1.4239688E4,2.9884432E4,5.770231E4,1.5054328E4,1.6111908E4,1.3645797E4,1.7238912E3,2.4954436E3,6.94781E3,8.447008E1,2.7099626E3,1.963523E2,2.4083787E3,1.3662106E3,1.2873479E4,2.6361338E4,3.5230923E3,1.9812756E4,3.788955E4,6.1611514E3,8.893177E3,1.4116695E4,1.9952125E3,6.516656E3,7.1291416E3,1.22421906E2,1.6014694E3,1.3050316E3,1.1904121E3,6.2352795E1,6.8854575E3,7.1751495E1,1.2718583E1,2.8034192E2,2.4296206E3,2.7846744E2,2.1299114E3,7.7075665E2,5.954539E2,2.7893347E3,1.0084144E4,5.807207E2,2.5780617E4,1.7760123E3,1.7470801E3,1.4001684E4,5.8110728E3,4.526969E3,3.3362582E4,3.4821646E2,5.812935E3,2.9781213E3,5.915055E3,8.462771E3,5.653925E3,6.739463E2,1.3212662E3,2.724148E3,3.7925076E3,6.197625E3,9.3151636E2,1.1992637E2,2.4955378E0,1.5830609E3,1.8408396E1,4.861366E2,8.1889496E2,1.0743073E3,1.16104935E2,1.7756497E2,6.7078926E3,4.8653008E1,2.3098488E1,1.626062E2,2.2670144E3,1.3674011E2,1.9931711E3,4.1696707E2,1.7848688E2,4.4137595E2,2.3479587E3,2.7284294E3,7.355714E3,3.9172296E2,1.8899774E2,6.40141E3,1.9379207E4,2.681386E2,1.5078737E3,1.3303588E3,4.1672128E2,8.600412E3,5.4012715E3,2.7450195E3,3.066053E3,3.3010605E3,1.2259088E3,2.5096684E4,8.265897E3],"tree_param":{"num_deleted":"0","num_feature":"3","num_nodes":"111","size_leaf_vector":"1"}},{"base_weights":[3.1453397E-4,8.0992055E-1,-4.5120844E-1,1.007934E0,5.890744E-1,-6.1726636E-1,-4.1945034E-1,1.0875055E0,9.3401164E-1,7.3441863E-1,4.076443E-1,-8.113556E-1,-5.81989E-1,-3.382391E-1,-4.6001795E-1,9.640235E-1,1.1737118E0,9.5339733E-1,7.972199E-1,6.5735394E-1,1.357841E0,2.7432948E-1,8.648023E-1,-3.2922115E-2,-8.5115266E-1,-2.0979626E-1,-6.2157637E-1,-3.9274007E-1,1.7673147E-1,-5.475411E-1,-4.141241E-1,1.4599745E-1,9.421098E-1,1.2914549E0,1.1147076E0,8.691012E-1,1.0048578E0,4.5404255E-1,8.321802E-1,7.898604E-1,5.254765E-1,1.1458493E0,1.3734303E0,5.4836446E-1,1.7654635E-1,-2.5475478E-1,8.999969E-1,-1.1944429E-1,-8.064842E-1,-6.575119E-2,3.6414522E-1,-7.5455487E-1,-5.8495677E-1,1.0776952E-1,-4.0409088E-1,4.323478E-1,-2.7548665E-1,-5.096126E-1,-7.477135E-1,-1.7638691E-1,-4.494703E-1,9.665995E-2,6.7986876E-2,1.2651448E-1,1.4222936E-1,1.0099583E-1,1.3278049E-1,9.0377755E-2,6.7571394E-2,1.1763561E-1,9.8388694E-2,3.2398317E-2,5.54681E-2,8.708062E-2,6.042077E-2,6.19828E-2,9.0354644E-2,5.639225E-2,2.8360954E-2,1.1638695E-1,2.0970883E-2,1.3769756E-1,1.0154194E-1,7.189461E-2,3.6261998E-2,3.195647E-2,4.151007E-3,-4.653232E-2,8.853353E-2,1.391196E-1,8.15958E-2,-7.1201675E-2,-1.0289583E-1,2.9156346E-2,5.318577E-2,-6.0019594E-2,-8.315932E-2,-4.270442E-2,-6.437763E-2,-1.8515663E-2,7.052187E-2,-5.636383E-2,-3.5165966E-2,-2.8207377E-3,5.1437747E-2,-3.2843087E-2,-2.0569352E-2,-5.619053E-2,-4.4518255E-2,-1.18957855E-1,-7.2716504E-2,-3.1181378E-2,2.3197167E-2,-4.315504E-2,-7.031282E-2],"categories":[],"categories_nodes":[],"categories_segments":[],"categories_sizes":[],"default_left":[0,0,0,0,0,0,0,0,0,0,0,0,0,0,0,0,0,0,0,0,0,0,0,0,0,0,0,0,0,0,0,0,0,0,0,0,0,0,0,0,0,0,0,0,0,0,0,0,0,0,0,0,0,0,0,0,0,0,0,0,0,0,0,0,0,0,0,0,0,0,0,0,0,0,0,0,0,0,0,0,0,0,0,0,0,0,0,0,0,0,0,0,0,0,0,0,0,0,0,0,0,0,0,0,0,0,0,0,0,0,0,0,0,0,0],"id":4,"left_children":[1,3,5,7,9,11,13,15,17,19,21,23,25,27,29,31,33,35,37,39,41,43,45,-1,47,49,51,53,55,57,59,-1,61,63,65,67,69,71,73,75,77,79,81,83,85,87,89,-1,91,-1,93,95,97,99,101,103,105,107,109,111,113,-1,-1,-1,-1,-1,-1,-1,-1,-1,-1,-1,-1,-1,-1,-1,-1,-1,-1,-1,-1,-1,-1,-1,-1,-1,-1,-1,-1,-1,-1,-1,-1,-1,-1,-1,-1,-1,-1,-1,-1,-1,-1,-1,-1,-1,-1,-1,-1,-1,-1,-1,-1,-1,-1],"loss_changes":[5.904411E4,2.5282852E3,5.465703E2,1.7832617E2,7.20667E2,1.13492676E2,2.8662402E2,1.5510938E2,4.11709E1,7.283491E2,7.410432E2,4.879138E1,2.0744678E2,8.140276E2,2.3293262E2,6.426465E1,5.857715E1,5.918457E1,2.3244019E1,2.3567871E2,3.9418945E0,2.522757E2,1.0841382E2,0E0,3.525354E1,3.4865683E2,6.156494E1,1.4903809E2,3.210355E2,1.511914E2,3.199375E2,0E0,3.65083E1,8.106445E0,1.27279785E2,3.463208E1,2.9737305E1,2.2316856E0,1.5197388E1,1.2967383E2,6.2834106E1,1.7863007E0,5.683594E-1,7.8203186E1,1.3407224E2,2.0688251E1,1.0875903E2,0E0,4.3254517E1,0E0,7.0857925E0,3.2154053E1,9.2500244E1,1.0204939E2,2.143252E2,6.7036835E1,3.6393204E0,5.6309082E1,2.79906E1,2.727641E2,1.5039502E2,0E0,0E0,0E0,0E0,0E0,0E0,0E0,0E0,0E0,0E0,0E0,0E0,0E0,0E0,0E0,0E0,0E0,0E0,0E0,0E0,0E0,0E0,0E0,0E0,0E0,0E0,0E0,0E0,0E0,0E0,0E0,0E0,0E0,0E0,0E0,0E0,0E0,0E0,0E0,0E0,0E0,0E0,0E0,0E0,0E0,0E0,0E0,0E0,0E0,0E0,0E0,0E0,0E0,0E0],"parents":[2147483647,0,0,1,1,2,2,3,3,4,4,5,5,6,6,7,7,8,8,9,9,10,10,11,11,12,12,13,13,14,14,15,15,16,16,17,17,18,18,19,19,20,20,21,21,22,22,24,24,25,25,26,26,27,27,28,28,29,29,30,30,32,32,33,33,34,34,35,35,36,36,37,37,38,38,39,39,40,40,41,41,42,42,43,43,44,44,45,45,46,46,48,48,50,50,51,51,52,52,53,53,54,54,55,55,56,56,57,57,58,58,59,59,60,60],"right_children":[2,4,6,8,10,12,14,16,18,20,22,24,26,28,30,32,34,36,38,40,42,44,46,-1,48,50,52,54,56,58,60,-1,62,64,66,68,70,72,74,76,78,80,82,84,86,88,90,-1,92,-1,94,96,98,100,102,104,106,108,110,112,114,-1,-1,-1,-1,-1,-1,-1,-1,-1,-1,-1,-1,-1,-1,-1,-1,-1,-1,-1,-1,-1,-1,-1,-1,-1,-1,-1,-1,-1,-1,-1,-1,-1,-1,-1,-1,-1,-1,-1,-1,-1,-1,-1,-1,-1,-1,-1,-1,-1,-1,-1,-1,-1,-1],"split_conditions":[1.3E1,2E0,1.8004912E7,4.9595776E7,4E0,1.496264E6,4.9595776E7,2.85893E7,1.6750821E8,3E0,1E1,7.419E3,2.16659E6,4.8025964E7,8.5848184E7,7.419E3,3.3033064E7,8.668195E7,1.7266021E8,5.254892E7,6.593268E6,6E0,1.222973E6,-3.2922115E-2,1.58048E5,2.072241E6,5.045296E6,1.8690188E7,4.8980692E7,7.749892E7,9.568653E7,1.4599745E-1,2.4164412E7,3.2899244E7,4.7205704E7,7.749892E7,9.008574E7,1.697799E8,2.3150222E8,2.85893E7,1.6750821E8,6.266606E6,2.2728896E8,4.9595776E7,5.040585E7,1.1E1,6.593268E6,-1.1944429E-1,1.222973E6,-6.575119E-2,2.1345E6,2.840713E6,8.03212E6,1.8529108E7,2.85893E7,4.8271708E7,4.93995E7,6.4716224E7,7.774175E7,9.380234E7,2.2010098E8,9.665995E-2,6.7986876E-2,1.2651448E-1,1.4222936E-1,1.0099583E-1,1.3278049E-1,9.0377755E-2,6.7571394E-2,1.1763561E-1,9.8388694E-2,3.2398317E-2,5.54681E-2,8.708062E-2,6.042077E-2,6.19828E-2,9.0354644E-2,5.639225E-2,2.8360954E-2,1.1638695E-1,2.0970883E-2,1.3769756E-1,1.0154194E-1,7.189461E-2,3.6261998E-2,3.195647E-2,4.151007E-3,-4.653232E-2,8.853353E-2,1.391196E-1,8.15958E-2,-7.1201675E-2,-1.0289583E-1,2.9156346E-2,5.318577E-2,-6.0019594E-2,-8.315932E-2,-4.270442E-2,-6.437763E-2,-1.8515663E-2,7.052187E-2,-5.636383E-2,-3.5165966E-2,-2.8207377E-3,5.1437747E-2,-3.2843087E-2,-2.0569352E-2,-5.619053E-2,-4.4518255E-2,-1.18957855E-1,-7.2716504E-2,-3.1181378E-2,2.3197167E-2,-4.315504E-2,-7.031282E-2],"split_indices":[0,0,2,2,0,1,2,2,2,0,0,1,2,1,2,1,1,1,2,2,1,0,2,0,1,2,2,1,1,1,1,0,1,1,2,1,1,2,1,2,2,1,2,2,1,0,1,0,2,0,1,2,2,2,2,1,2,1,2,1,1,0,0,0,0,0,0,0,0,0,0,0,0,0,0,0,0,0,0,0,0,0,0,0,0,0,0,0,0,0,0,0,0,0,0,0,0,0,0,0,0,0,0,0,0,0,0,0,0,0,0,0,0,0,0],"split_type":[0,0,0,0,0,0,0,0,0,0,0,0,0,0,0,0,0,0,0,0,0,0,0,0,0,0,0,0,0,0,0,0,0,0,0,0,0,0,0,0,0,0,0,0,0,0,0,0,0,0,0,0,0,0,0,0,0,0,0,0,0,0,0,0,0,0,0,0,0,0,0,0,0,0,0,0,0,0,0,0,0,0,0,0,0,0,0,0,0,0,0,0,0,0,0,0,0,0,0,0,0,0,0,0,0,0,0,0,0,0,0,0,0,0,0],"sum_hessian":[1.6151678E5,5.782769E4,1.03689086E5,3.0488111E4,2.7339578E4,1.664366E4,8.704543E4,1.4676428E4,1.5811684E4,1.5177656E4,1.2161923E4,2.556469E3,1.4087192E4,2.9000148E4,5.8045277E4,6.0387324E3,8.637695E3,1.3843811E4,1.9678735E3,1.3509701E4,1.6679542E3,9.417287E3,2.7446357E3,1.9563675E2,2.360832E3,1.3549075E3,1.2732284E4,2.6224918E4,2.7752297E3,1.9963129E4,3.808215E4,2.5275471E2,5.785978E3,2.8765764E3,5.761118E3,5.254475E3,8.589335E3,1.8323103E2,1.7846425E3,6.7362886E3,6.773413E3,1.19357765E2,1.5485964E3,2.4754075E3,6.9418794E3,8.3460945E1,2.6611748E3,2.688557E2,2.0919763E3,7.610715E2,5.93836E2,2.7449192E3,9.987365E3,5.81365E2,2.5643553E4,1.7730544E3,1.00217523E3,1.6786068E4,3.17706E3,4.929892E3,3.3152258E4,5.289341E3,4.966371E2,2.4038574E3,4.7271902E2,3.8663357E3,1.8947826E3,4.452435E3,8.020399E2,9.2986664E2,7.6594688E3,8.177236E1,1.0145868E2,1.5236646E3,2.609779E2,2.7018154E3,4.0344731E3,5.843266E3,9.3014685E2,1.1686492E2,2.4928432E0,1.5305933E3,1.8003216E1,1.2888761E3,1.1865312E3,3.370636E3,3.5712432E3,7.094892E1,1.2512026E1,3.8650952E2,2.2746653E3,1.4713911E3,6.2058527E2,4.163769E2,1.774591E2,9.1678357E2,1.8281357E3,2.712741E3,7.2746245E3,3.9056375E2,1.9080125E2,6.340319E3,1.9303234E4,2.6815506E2,1.5048993E3,5.677676E2,4.3440765E2,9.261523E3,7.524546E3,1.3865202E2,3.038408E3,3.7023064E3,1.2275859E3,3.0967246E4,2.185012E3],"tree_param":{"num_deleted":"0","num_feature":"3","num_nodes":"115","size_leaf_vector":"1"}},{"base_weights":[4.893174E-4,7.4353296E-1,-4.0945163E-1,9.31846E-1,5.365213E-1,-5.4877514E-1,-3.767518E-1,1.0096726E0,8.60102E-1,6.713209E-1,3.6958697E-1,-7.463592E-1,-5.197093E-1,-2.8594828E-1,-4.1727597E-1,8.866784E-1,1.0937219E0,8.78753E-1,7.299275E-1,5.9884965E-1,1.2743593E0,2.4764888E-1,7.949962E-1,-2.9767042E-2,-7.840709E-1,-1.9074641E-1,-5.4781276E-1,-3.396674E-1,1.5954004E-1,-4.9790522E-1,-3.751491E-1,1.3164753E0,8.612726E-1,1.205218E0,1.0361735E0,8.25957E-1,9.582945E-1,5.975672E-1,8.16997E-1,7.300226E-1,4.813492E-1,1.073331E0,1.2905931E0,4.9806792E-1,1.5899898E-1,-4.330182E-1,8.2299817E-1,-1.120974E-1,-7.411009E-1,-6.004533E-2,3.289894E-1,-6.232866E-1,-4.7673693E-1,-2.1249542E-1,-4.1598582E-1,3.9025033E-1,-2.4883844E-1,-4.4588095E-1,-6.319545E-1,-1.5907921E-1,-4.074326E-1,1.3846228E-1,1.0981484E-1,2.1698257E-2,8.793914E-2,1.1199659E-1,1.2513095E-1,9.350722E-2,1.2442131E-1,8.54572E-2,3.882686E-2,1.3248573E-1,9.1465734E-2,6.1036225E-2,-1.9810216E-1,9.3947984E-2,6.294175E-2,6.730887E-2,1.1096686E-1,5.1553387E-2,2.5574936E-2,1.0911604E-1,-1.0250611E-2,1.3460906E-1,1.2586834E-1,6.561907E-2,3.2757144E-2,2.8863842E-2,3.7948755E-3,-7.6743476E-2,8.183866E-2,1.458214E-1,7.660664E-2,-2.1266168E-2,-7.7814594E-2,2.6295284E-2,4.8234403E-2,-5.4295033E-2,-8.431547E-2,1.0111983E-3,-5.1134307E-2,-4.4238787E-2,9.192245E-4,-6.7555405E-2,-3.5857078E-2,-2.5395553E-3,4.6452E-2,-2.9685711E-2,-1.8563421E-2,-4.6227932E-2,1.9066757E-2,-5.843491E-2,-7.80994E-2,-2.814657E-2,2.0858485E-2,-3.717925E-2,-5.160072E-2],"categories":[],"categories_nodes":[],"categories_segments":[],"categories_sizes":[],"default_left":[0,0,0,0,0,0,0,0,0,0,0,0,0,0,0,0,0,0,0,0,0,0,0,0,0,0,0,0,0,0,0,0,0,0,0,0,0,0,0,0,0,0,0,0,0,0,0,0,0,0,0,0,0,0,0,0,0,0,0,0,0,0,0,0,0,0,0,0,0,0,0,0,0,0,0,0,0,0,0,0,0,0,0,0,0,0,0,0,0,0,0,0,0,0,0,0,0,0,0,0,0,0,0,0,0,0,0,0,0,0,0,0,0,0,0,0,0],"id":5,"left_children":[1,3,5,7,9,11,13,15,17,19,21,23,25,27,29,31,33,35,37,39,41,43,45,-1,47,49,51,53,55,57,59,61,63,65,67,69,71,73,75,77,79,81,83,85,87,89,91,-1,93,-1,95,97,99,101,103,105,107,109,111,113,115,-1,-1,-1,-1,-1,-1,-1,-1,-1,-1,-1,-1,-1,-1,-1,-1,-1,-1,-1,-1,-1,-1,-1,-1,-1,-1,-1,-1,-1,-1,-1,-1,-1,-1,-1,-1,-1,-1,-1,-1,-1,-1,-1,-1,-1,-1,-1,-1,-1,-1,-1,-1,-1,-1,-1,-1],"loss_changes":[4.863287E4,2.2124277E3,4.685586E2,1.6509961E2,6.082949E2,1.1192529E2,3.0653906E2,1.463623E2,3.692578E1,6.530488E2,6.2662964E2,4.216455E1,1.5754102E2,6.155359E2,1.9552734E2,6.2098633E1,5.304785E1,5.6024414E1,2.1927612E1,2.0552295E2,3.8498535E0,2.0844556E2,9.291077E1,0E0,3.262195E1,2.8631073E2,8.397363E1,2.2266919E2,2.6091327E2,1.3759424E2,2.6395703E2,3.2600708E0,6.367163E1,9.894531E0,1.16379395E2,1.01604004E2,8.502539E1,2.6795837E1,2.630194E1,1.3563086E2,5.4228638E1,2.7491913E0,9.255371E-1,6.598065E1,1.0887857E2,2.6014378E1,9.406287E1,0E0,4.0011353E1,0E0,5.8778076E0,1.3406104E2,1.3638342E2,4.3880344E2,2.1350708E2,5.4629913E1,2.979702E0,1.487959E2,3.8745605E1,2.2152362E2,1.2723047E2,0E0,0E0,0E0,0E0,0E0,0E0,0E0,0E0,0E0,0E0,0E0,0E0,0E0,0E0,0E0,0E0,0E0,0E0,0E0,0E0,0E0,0E0,0E0,0E0,0E0,0E0,0E0,0E0,0E0,0E0,0E0,0E0,0E0,0E0,0E0,0E0,0E0,0E0,0E0,0E0,0E0,0E0,0E0,0E0,0E0,0E0,0E0,0E0,0E0,0E0,0E0,0E0,0E0,0E0,0E0,0E0],"parents":[2147483647,0,0,1,1,2,2,3,3,4,4,5,5,6,6,7,7,8,8,9,9,10,10,11,11,12,12,13,13,14,14,15,15,16,16,17,17,18,18,19,19,20,20,21,21,22,22,24,24,25,25,26,26,27,27,28,28,29,29,30,30,31,31,32,32,33,33,34,34,35,35,36,36,37,37,38,38,39,39,40,40,41,41,42,42,43,43,44,44,45,45,46,46,48,48,50,50,51,51,52,52,53,53,54,54,55,55,56,56,57,57,58,58,59,59,60,60],"right_children":[2,4,6,8,10,12,14,16,18,20,22,24,26,28,30,32,34,36,38,40,42,44,46,-1,48,50,52,54,56,58,60,62,64,66,68,70,72,74,76,78,80,82,84,86,88,90,92,-1,94,-1,96,98,100,102,104,106,108,110,112,114,116,-1,-1,-1,-1,-1,-1,-1,-1,-1,-1,-1,-1,-1,-1,-1,-1,-1,-1,-1,-1,-1,-1,-1,-1,-1,-1,-1,-1,-1,-1,-1,-1,-1,-1,-1,-1,-1,-1,-1,-1,-1,-1,-1,-1,-1,-1,-1,-1,-1,-1,-1,-1,-1,-1,-1,-1],"split_conditions":[1.3E1,2E0,2.2032916E7,4.9595776E7,4E0,1.496264E6,4.9595776E7,2.7550174E7,1.672436E8,3E0,1E1,7.419E3,2.16659E6,4.8025964E7,8.5848184E7,2.89601E5,3.3033064E7,1.076625E8,1.9587019E8,4.945936E7,7.572003E6,6E0,6.34791E5,-2.9767042E-2,1.58048E5,2.072241E6,1.0784736E7,3.3167288E7,4.8980692E7,7.374715E7,9.568653E7,7.419E3,9.16819E5,3.1201124E7,4.7205704E7,1.0198368E8,1.0840841E8,1.9415106E8,2.2010098E8,4.7205704E7,1.6750821E8,7.45701E6,4.3105184E7,4.9595776E7,5.0100348E7,1.1E1,4.015E5,-1.120974E-1,2.89601E5,-6.004533E-2,2.1345E6,8.222456E6,1.1234137E7,2.9490198E7,3.698696E7,4.8271708E7,4.93995E7,7.332519E7,8.08278E7,9.380234E7,1.672436E8,1.3846228E-1,1.0981484E-1,2.1698257E-2,8.793914E-2,1.1199659E-1,1.2513095E-1,9.350722E-2,1.2442131E-1,8.54572E-2,3.882686E-2,1.3248573E-1,9.1465734E-2,6.1036225E-2,-1.9810216E-1,9.3947984E-2,6.294175E-2,6.730887E-2,1.1096686E-1,5.1553387E-2,2.5574936E-2,1.0911604E-1,-1.0250611E-2,1.3460906E-1,1.2586834E-1,6.561907E-2,3.2757144E-2,2.8863842E-2,3.7948755E-3,-7.6743476E-2,8.183866E-2,1.458214E-1,7.660664E-2,-2.1266168E-2,-7.7814594E-2,2.6295284E-2,4.8234403E-2,-5.4295033E-2,-8.431547E-2,1.0111983E-3,-5.1134307E-2,-4.4238787E-2,9.192245E-4,-6.7555405E-2,-3.5857078E-2,-2.5395553E-3,4.6452E-2,-2.9685711E-2,-1.8563421E-2,-4.6227932E-2,1.9066757E-2,-5.843491E-2,-7.80994E-2,-2.814657E-2,2.0858485E-2,-3.717925E-2,-5.160072E-2],"split_indices":[0,0,1,2,0,1,2,2,1,0,0,1,2,1,2,2,1,2,2,1,1,0,2,0,1,2,2,2,1,2,1,1,2,1,2,1,1,1,1,2,2,2,1,2,1,0,1,0,2,0,1,1,1,1,2,1,2,2,2,1,1,0,0,0,0,0,0,0,0,0,0,0,0,0,0,0,0,0,0,0,0,0,0,0,0,0,0,0,0,0,0,0,0,0,0,0,0,0,0,0,0,0,0,0,0,0,0,0,0,0,0,0,0,0,0,0,0],"split_type":[0,0,0,0,0,0,0,0,0,0,0,0,0,0,0,0,0,0,0,0,0,0,0,0,0,0,0,0,0,0,0,0,0,0,0,0,0,0,0,0,0,0,0,0,0,0,0,0,0,0,0,0,0,0,0,0,0,0,0,0,0,0,0,0,0,0,0,0,0,0,0,0,0,0,0,0,0,0,0,0,0,0,0,0,0,0,0,0,0,0,0,0,0,0,0,0,0,0,0,0,0,0,0,0,0,0,0,0,0,0,0,0,0,0,0,0,0],"sum_hessian":[1.5965734E5,5.6765504E4,1.0289184E5,2.9723398E4,2.7042105E4,1.9555643E4,8.3336195E4,1.425105E4,1.5472349E4,1.4959374E4,1.208273E4,2.5046726E3,1.7050969E4,2.5717758E4,5.761844E4,5.789897E3,8.461152E3,1.3528305E4,1.9440443E3,1.3356255E4,1.6031194E3,9.392168E3,2.6905625E3,1.9488226E2,2.3097905E3,1.342637E3,1.5708332E4,2.2950514E4,2.7672458E3,1.9769498E4,3.784894E4,3.2031006E2,5.469587E3,2.8736697E3,5.587483E3,8.1380337E3,5.3902705E3,7.7451483E2,1.1695295E3,6.3084907E3,7.0477637E3,1.2480029E2,1.4783191E3,2.4543838E3,6.937784E3,5.9661633E1,2.630901E3,2.5843826E2,2.051352E3,7.5070337E2,5.9193353E2,7.6146943E3,8.093638E3,8.608935E3,1.4341579E4,1.7683016E3,9.989441E2,1.4245263E4,5.524236E3,4.920757E3,3.2928184E4,2.4004251E2,8.026755E1,1.499642E2,5.3196226E3,1.0173168E3,1.8563529E3,3.763854E3,1.8236289E3,7.637745E3,5.0028857E2,5.7029425E2,4.819976E3,7.7145013E2,3.0646684E0,7.0510944E2,4.644201E2,5.488219E3,8.202715E2,6.119242E3,9.2852136E2,1.23007126E2,1.7931734E0,5.246561E2,9.536629E2,1.2719224E3,1.1824614E3,3.3493713E3,3.5884128E3,4.7385426E1,1.2276204E1,2.1437709E2,2.4165237E3,1.3482607E2,1.9165261E3,4.1565964E2,1.7627393E2,5.5795034E3,2.0351912E3,5.371774E2,7.5564604E3,4.2257705E3,4.383164E3,2.5957344E3,1.1745845E4,2.6816876E2,1.5001329E3,5.655655E2,4.3337863E2,1.3887768E4,3.5749472E2,4.190614E3,1.3336223E3,3.69201E3,1.2287468E3,2.4793898E4,8.134286E3],"tree_param":{"num_deleted":"0","num_feature":"3","num_nodes":"117","size_leaf_vector":"1"}},{"base_weights":[6.5339974E-4,6.837483E-1,-3.7171754E-1,8.636209E-1,4.8913294E-1,-5.373361E-1,-3.4811193E-1,9.40216E-1,7.936212E-1,6.144115E-1,3.3530423E-1,-6.8752205E-1,-5.0146514E-1,-2.9483873E-1,-3.8111293E-1,8.1953603E-1,1.0236789E0,8.1155837E-1,6.688077E-1,5.460058E-1,1.2024127E0,2.2362767E-1,7.32365E-1,-2.691692E-2,-7.2337437E-1,-1.8823099E-1,-5.537703E-1,-3.4395295E-1,-7.525781E-2,-4.679525E-1,-3.391941E-1,8.4159076E-1,3.1874555E-1,1.1361419E0,9.6623355E-1,7.308209E-1,8.635456E-1,5.2446896E-1,7.4338275E-1,6.691107E-1,4.3677494E-1,9.9146926E-1,1.2183272E0,4.5267624E-1,1.4321992E-1,-2.2995082E-1,7.6320225E-1,-1.05562046E-1,-6.819167E-1,-5.486976E-2,1.7673244E-1,-6.649451E-1,-5.091603E-1,-3.234307E-1,-7.3569006E-1,1.1804218E-1,-2.8231773E-1,-4.206088E-1,-5.658528E-1,-1.1981847E-1,-3.6941922E-1,1.3219778E-1,8.202421E-2,4.3138996E-2,2.3790204E-3,1.0507782E-1,1.1826318E-1,8.677336E-2,1.17178656E-1,7.628333E-2,5.800466E-2,1.07907705E-1,8.413795E-2,2.3529977E-2,5.648722E-2,8.392767E-2,5.753956E-2,5.0275158E-2,7.925561E-2,4.6821576E-2,2.3066772E-2,1.0098761E-1,1.182548E-2,1.2734608E-1,1.18627444E-1,5.9987277E-2,2.962983E-2,1.4547865E-1,1.3150324E-2,-4.0914558E-2,7.579606E-2,1.3737464E-1,6.999665E-2,-5.9186697E-2,-8.9719646E-2,2.9732415E-2,-3.2433018E-2,-5.4596037E-2,-7.2807804E-2,-3.358741E-2,-6.370019E-2,-4.2323407E-2,-2.6039956E-2,-6.9831036E-2,-1.07982315E-1,-1.4167191E-2,4.1986044E-2,-3.4986988E-2,2.1248765E-2,-5.1416695E-2,-2.89079E-2,-5.109374E-2,-6.2028836E-2,-2.3521673E-2,1.8762045E-2,-3.5360795E-2,-5.950526E-2],"categories":[],"categories_nodes":[],"categories_segments":[],"categories_sizes":[],"default_left":[0,0,0,0,0,0,0,0,0,0,0,0,0,0,0,0,0,0,0,0,0,0,0,0,0,0,0,0,0,0,0,0,0,0,0,0,0,0,0,0,0,0,0,0,0,0,0,0,0,0,0,0,0,0,0,0,0,0,0,0,0,0,0,0,0,0,0,0,0,0,0,0,0,0,0,0,0,0,0,0,0,0,0,0,0,0,0,0,0,0,0,0,0,0,0,0,0,0,0,0,0,0,0,0,0,0,0,0,0,0,0,0,0,0,0,0,0],"id":6,"left_children":[1,3,5,7,9,11,13,15,17,19,21,23,25,27,29,31,33,35,37,39,41,43,45,-1,47,49,51,53,55,57,59,61,63,65,67,69,71,73,75,77,79,81,83,85,87,89,91,-1,93,-1,95,97,99,101,103,105,107,109,111,113,115,-1,-1,-1,-1,-1,-1,-1,-1,-1,-1,-1,-1,-1,-1,-1,-1,-1,-1,-1,-1,-1,-1,-1,-1,-1,-1,-1,-1,-1,-1,-1,-1,-1,-1,-1,-1,-1,-1,-1,-1,-1,-1,-1,-1,-1,-1,-1,-1,-1,-1,-1,-1,-1,-1,-1,-1],"loss_changes":[4.0113066E4,1.9471914E3,3.988291E2,1.5427148E2,5.1483154E2,6.823804E1,1.569414E2,1.3816113E2,3.3291992E1,5.917583E2,5.318583E2,3.6577515E1,1.6831616E2,3.685415E2,2.0062988E2,6.2104004E1,5.158203E1,5.48125E1,2.0112183E1,1.7714404E2,3.9421387E0,1.7242603E2,7.832019E1,0E0,3.037622E1,1.9380757E2,4.334619E1,2.2428687E2,2.501132E2,8.298218E1,2.4664697E2,5.438208E1,7.957777E0,9.675537E0,1.0839551E2,2.4562012E1,3.74541E1,7.4874725E0,1.9708557E1,1.2696387E2,4.5217896E1,1.6966248E0,1.0024414E0,5.5827667E1,1.0635913E2,1.4920849E1,9.755908E1,0E0,3.843335E1,0E0,4.4351883E1,1.8525146E1,1.3913489E2,1.6684424E2,1.7119812E1,2.5341599E2,1.0091794E2,1.488269E2,1.71698E1,1.5993387E2,1.1644531E2,0E0,0E0,0E0,0E0,0E0,0E0,0E0,0E0,0E0,0E0,0E0,0E0,0E0,0E0,0E0,0E0,0E0,0E0,0E0,0E0,0E0,0E0,0E0,0E0,0E0,0E0,0E0,0E0,0E0,0E0,0E0,0E0,0E0,0E0,0E0,0E0,0E0,0E0,0E0,0E0,0E0,0E0,0E0,0E0,0E0,0E0,0E0,0E0,0E0,0E0,0E0,0E0,0E0,0E0,0E0,0E0],"parents":[2147483647,0,0,1,1,2,2,3,3,4,4,5,5,6,6,7,7,8,8,9,9,10,10,11,11,12,12,13,13,14,14,15,15,16,16,17,17,18,18,19,19,20,20,21,21,22,22,24,24,25,25,26,26,27,27,28,28,29,29,30,30,31,31,32,32,33,33,34,34,35,35,36,36,37,37,38,38,39,39,40,40,41,41,42,42,43,43,44,44,45,45,46,46,48,48,50,50,51,51,52,52,53,53,54,54,55,55,56,56,57,57,58,58,59,59,60,60],"right_children":[2,4,6,8,10,12,14,16,18,20,22,24,26,28,30,32,34,36,38,40,42,44,46,-1,48,50,52,54,56,58,60,62,64,66,68,70,72,74,76,78,80,82,84,86,88,90,92,-1,94,-1,96,98,100,102,104,106,108,110,112,114,116,-1,-1,-1,-1,-1,-1,-1,-1,-1,-1,-1,-1,-1,-1,-1,-1,-1,-1,-1,-1,-1,-1,-1,-1,-1,-1,-1,-1,-1,-1,-1,-1,-1,-1,-1,-1,-1,-1,-1,-1,-1,-1,-1,-1,-1,-1,-1,-1,-1,-1,-1,-1,-1,-1,-1,-1],"split_conditions":[1.3E1,2E0,1.2704685E7,4.9595776E7,4E0,1.496264E6,5.219137E7,2.7550174E7,1.6750821E8,3E0,1E1,7.419E3,2.337289E6,4.7205704E7,8.704125E7,2.5565678E7,3.3033064E7,8.794776E7,1.8971354E8,4.945936E7,6.593268E6,6E0,1.222973E6,-2.691692E-2,1.58048E5,2.072241E6,5.045296E6,4.5707404E7,4.8980692E7,7.374715E7,9.568653E7,7.419E3,2.700924E7,3.1201124E7,4.7205704E7,7.749892E7,9.008574E7,1.697799E8,2.2010098E8,2.85893E7,1.6750821E8,6.266606E6,4.3105184E7,4.945936E7,7.419E3,1.1E1,1.260636E6,-1.05562046E-1,1.222973E6,-5.486976E-2,2.16659E6,2.953211E6,8.03212E6,2.85893E7,4.704092E7,4.8271708E7,5.1556716E7,6.4716224E7,7.826195E7,9.380234E7,2.2010098E8,1.3219778E-1,8.202421E-2,4.3138996E-2,2.3790204E-3,1.0507782E-1,1.1826318E-1,8.677336E-2,1.17178656E-1,7.628333E-2,5.800466E-2,1.07907705E-1,8.413795E-2,2.3529977E-2,5.648722E-2,8.392767E-2,5.753956E-2,5.0275158E-2,7.925561E-2,4.6821576E-2,2.3066772E-2,1.0098761E-1,1.182548E-2,1.2734608E-1,1.18627444E-1,5.9987277E-2,2.962983E-2,1.4547865E-1,1.3150324E-2,-4.0914558E-2,7.579606E-2,1.3737464E-1,6.999665E-2,-5.9186697E-2,-8.9719646E-2,2.9732415E-2,-3.2433018E-2,-5.4596037E-2,-7.2807804E-2,-3.358741E-2,-6.370019E-2,-4.2323407E-2,-2.6039956E-2,-6.9831036E-2,-1.07982315E-1,-1.4167191E-2,4.1986044E-2,-3.4986988E-2,2.1248765E-2,-5.1416695E-2,-2.89079E-2,-5.109374E-2,-6.2028836E-2,-2.3521673E-2,1.8762045E-2,-3.5360795E-2,-5.950526E-2],"split_indices":[0,0,1,2,0,1,2,2,2,0,0,1,1,2,2,2,1,1,1,1,1,0,2,0,1,2,2,1,1,2,1,1,2,1,2,1,1,2,1,2,2,1,1,1,1,0,1,0,2,0,2,1,2,2,1,1,2,1,2,1,1,0,0,0,0,0,0,0,0,0,0,0,0,0,0,0,0,0,0,0,0,0,0,0,0,0,0,0,0,0,0,0,0,0,0,0,0,0,0,0,0,0,0,0,0,0,0,0,0,0,0,0,0,0,0,0,0],"split_type":[0,0,0,0,0,0,0,0,0,0,0,0,0,0,0,0,0,0,0,0,0,0,0,0,0,0,0,0,0,0,0,0,0,0,0,0,0,0,0,0,0,0,0,0,0,0,0,0,0,0,0,0,0,0,0,0,0,0,0,0,0,0,0,0,0,0,0,0,0,0,0,0,0,0,0,0,0,0,0,0,0,0,0,0,0,0,0,0,0,0,0,0,0,0,0,0,0,0,0,0,0,0,0,0,0,0,0,0,0,0,0,0,0,0,0,0,0],"sum_hessian":[1.5769705E5,5.563561E4,1.0206143E5,2.8911145E4,2.6724465E4,1.27293955E4,8.933203E4,1.3799263E4,1.5111882E4,1.472742E4,1.1997046E4,2.4506702E3,1.0278726E4,3.417446E4,5.5157574E4,5.64619E3,8.1530728E3,1.3208206E4,1.9036758E3,1.319437E4,1.5330504E3,9.364708E3,2.6323372E3,1.9411339E2,2.256557E3,1.471445E3,8.807281E3,2.7927318E4,6.247142E3,1.7953906E4,3.7203668E4,5.40737E3,2.388201E2,2.750175E3,5.4028975E3,5.1794517E3,8.0287544E3,6.512417E2,1.252434E3,6.2008203E3,6.9935493E3,1.11986946E2,1.4210634E3,2.432081E3,6.9326274E3,8.153321E1,2.550804E3,2.476226E2,2.0089342E3,7.4002985E2,7.3141504E2,2.518041E3,6.2892397E3,2.6538832E4,1.3884874E3,3.2311472E3,3.0159949E3,1.2105226E4,5.8486807E3,4.50574E3,3.2697928E4,2.2748947E2,5.1798804E3,1.7248495E2,6.633514E1,9.7799756E2,1.7721775E3,3.6561238E3,1.7467738E3,4.2689985E3,9.104529E2,7.442635E2,7.2844907E3,8.0674126E1,5.7056757E2,7.947577E2,4.5767633E2,2.6434673E3,3.5573528E3,6.0668096E3,9.2673987E2,1.0952178E2,2.4651632E0,5.081939E2,9.128695E2,1.2513579E3,1.180723E3,6.029268E1,6.8723345E3,6.951069E1,1.202252E1,2.3745386E2,2.31335E3,1.41909E3,5.898442E2,5.8985913E2,1.4155592E2,8.762489E2,1.6417921E3,2.6715908E3,3.617649E3,1.0270624E4,1.6268207E4,1.2551791E3,1.3330833E2,1.7369957E3,1.4941514E3,2.653962E3,3.6203314E2,7.071969E3,5.033256E3,2.916677E3,2.9320037E3,3.276231E3,1.2295095E3,3.0559066E4,2.1388599E3],"tree_param":{"num_deleted":"0","num_feature":"3","num_nodes":"117","size_leaf_vector":"1"}},{"base_weights":[8.050401E-4,6.294885E-1,-3.374766E-1,8.0172193E-1,4.462507E-1,-5.038738E-1,-3.169305E-1,8.7733275E-1,7.332636E-1,5.628902E-1,3.0433252E-1,-4.5683056E-1,-7.229114E-1,-2.7241328E-1,-3.4623724E-1,7.585586E-1,9.605549E-1,7.506167E-1,6.1393845E-1,4.9819368E-1,1.1392039E0,2.0198902E-1,6.7554694E-1,-4.9542502E-1,-5.0462306E-2,-9.959015E-2,-5.664188E-1,-3.1572935E-1,-8.150092E-2,-4.3083027E-1,-3.0781168E-1,1.1963589E0,7.340726E-1,1.0745695E0,9.0298235E-1,6.995612E-1,8.282874E-1,5.891643E-1,1.0109474E-1,6.140582E-1,3.9645022E-1,9.272494E-1,1.1554435E0,2.6948568E-1,-5.6388818E-2,6.940664E-1,-8.6449616E-2,-6.337139E-1,-4.397977E-1,3.3363318E-1,-2.5598866E-1,-4.7800075E-2,-6.590786E-1,-2.9605708E-1,-6.396041E-1,1.0657124E-1,-2.600328E-1,-8.803929E-1,-4.1799396E-1,-1.277604E-1,-3.3497068E-1,1.2678784E-1,9.784685E-2,1.1876809E-2,7.5174436E-2,1.0463359E-1,1.2241536E-1,8.064317E-2,1.107767E-1,7.296295E-2,3.0535433E-2,1.1953534E-1,7.852379E-2,6.347709E-2,-7.7719025E-2,5.60848E-2,9.769808E-2,4.2538736E-2,2.0806609E-2,9.4509065E-2,1.0995975E-2,1.2126563E-1,1.1224301E-1,4.4334132E-2,1.2123314E-2,-1.2393206E-1,3.94091E-3,-3.859293E-2,7.1930796E-2,-2.433964E-2,-6.678408E-2,-1.7122125E-2,-5.265453E-2,-1.3347514E-2,6.6251814E-2,-1.0256961E-2,-5.3931784E-2,-8.3517164E-2,-5.7248205E-2,-3.8594466E-2,-2.3055237E-2,-5.766641E-2,-8.2759276E-2,-1.27662495E-2,3.797097E-2,-3.1700563E-2,-6.141086E-3,-9.504224E-2,-6.746632E-2,-3.850711E-2,-6.0367294E-2,-2.272161E-2,1.6880693E-2,-8.26643E-2,-3.2831248E-2],"categories":[],"categories_nodes":[],"categories_segments":[],"categories_sizes":[],"default_left":[0,0,0,0,0,0,0,0,0,0,0,0,0,0,0,0,0,0,0,0,0,0,0,0,0,0,0,0,0,0,0,0,0,0,0,0,0,0,0,0,0,0,0,0,0,0,0,0,0,0,0,0,0,0,0,0,0,0,0,0,0,0,0,0,0,0,0,0,0,0,0,0,0,0,0,0,0,0,0,0,0,0,0,0,0,0,0,0,0,0,0,0,0,0,0,0,0,0,0,0,0,0,0,0,0,0,0,0,0,0,0,0,0,0,0],"id":7,"left_children":[1,3,5,7,9,11,13,15,17,19,21,23,25,27,29,31,33,35,37,39,41,43,45,47,49,-1,51,53,55,57,59,61,63,65,67,69,71,73,-1,75,77,79,81,83,85,87,-1,89,91,93,95,-1,97,99,101,103,105,107,109,111,113,-1,-1,-1,-1,-1,-1,-1,-1,-1,-1,-1,-1,-1,-1,-1,-1,-1,-1,-1,-1,-1,-1,-1,-1,-1,-1,-1,-1,-1,-1,-1,-1,-1,-1,-1,-1,-1,-1,-1,-1,-1,-1,-1,-1,-1,-1,-1,-1,-1,-1,-1,-1,-1,-1],"loss_changes":[3.3114906E4,1.7187891E3,3.459463E2,1.4469531E2,4.3676074E2,1.1430127E2,1.1746973E2,1.3110449E2,3.0065918E1,5.395835E2,4.5232678E2,1.4364539E2,8.338818E1,2.958396E2,1.764878E2,5.8077393E1,5.0481934E1,5.044043E1,1.7867859E1,1.5331958E2,3.9589844E0,1.6285242E2,7.399658E1,6.407715E1,6.2896782E1,0E0,9.9375E0,1.8560449E2,2.2223013E2,9.755884E1,1.8268237E2,3.274109E0,5.6571533E1,9.804443E0,1.02211914E2,9.187036E1,7.9612305E1,1.1075E2,0E0,1.1703369E2,3.7736694E1,1.4863892E0,1.1948242E0,1.907655E2,2.1930385E2,6.961279E1,0E0,3.1774109E1,1.3898462E2,4.276274E1,2.2499626E1,0E0,8.7994995E0,1.6179077E2,1.9269775E1,2.0627994E2,3.840146E1,6.13266E0,1.0063574E2,1.4454498E2,1.06019775E2,0E0,0E0,0E0,0E0,0E0,0E0,0E0,0E0,0E0,0E0,0E0,0E0,0E0,0E0,0E0,0E0,0E0,0E0,0E0,0E0,0E0,0E0,0E0,0E0,0E0,0E0,0E0,0E0,0E0,0E0,0E0,0E0,0E0,0E0,0E0,0E0,0E0,0E0,0E0,0E0,0E0,0E0,0E0,0E0,0E0,0E0,0E0,0E0,0E0,0E0,0E0,0E0,0E0,0E0],"parents":[2147483647,0,0,1,1,2,2,3,3,4,4,5,5,6,6,7,7,8,8,9,9,10,10,11,11,12,12,13,13,14,14,15,15,16,16,17,17,18,18,19,19,20,20,21,21,22,22,23,23,24,24,26,26,27,27,28,28,29,29,30,30,31,31,32,32,33,33,34,34,35,35,36,36,37,37,39,39,40,40,41,41,42,42,43,43,44,44,45,45,47,47,48,48,49,49,50,50,52,52,53,53,54,54,55,55,56,56,57,57,58,58,59,59,60,60],"right_children":[2,4,6,8,10,12,14,16,18,20,22,24,26,28,30,32,34,36,38,40,42,44,46,48,50,-1,52,54,56,58,60,62,64,66,68,70,72,74,-1,76,78,80,82,84,86,88,-1,90,92,94,96,-1,98,100,102,104,106,108,110,112,114,-1,-1,-1,-1,-1,-1,-1,-1,-1,-1,-1,-1,-1,-1,-1,-1,-1,-1,-1,-1,-1,-1,-1,-1,-1,-1,-1,-1,-1,-1,-1,-1,-1,-1,-1,-1,-1,-1,-1,-1,-1,-1,-1,-1,-1,-1,-1,-1,-1,-1,-1,-1,-1,-1],"split_conditions":[1.3E1,2E0,1.0784736E7,4.9595776E7,4E0,8.222456E6,5.254892E7,2.7550174E7,1.672436E8,3E0,1E1,7.45701E6,9.48675E6,4.7205704E7,8.5848184E7,2.89601E5,3.3033064E7,1.076625E8,2.4078922E8,4.945936E7,6.593268E6,8E0,2.4078922E8,1.496264E6,7.632698E6,-9.959015E-2,1.0287098E7,4.5387776E7,4.8980692E7,5.3212716E7,9.568653E7,7.419E3,9.16819E5,3.2899244E7,4.7205704E7,1.0139885E8,1.0840841E8,2.3685026E8,1.0109474E-1,4.7205704E7,1.6750821E8,6.266606E6,4.3105184E7,4.9595776E7,9E0,6.34791E5,-8.6449616E-2,7.419E3,2.337289E6,7.572003E6,8.03212E6,-4.7800075E-2,1.0464934E7,2.85893E7,4.6734644E7,4.8271708E7,5.1556716E7,5.3061324E7,7.826195E7,9.380234E7,9.7355864E7,1.2678784E-1,9.784685E-2,1.1876809E-2,7.5174436E-2,1.0463359E-1,1.2241536E-1,8.064317E-2,1.107767E-1,7.296295E-2,3.0535433E-2,1.1953534E-1,7.852379E-2,6.347709E-2,-7.7719025E-2,5.60848E-2,9.769808E-2,4.2538736E-2,2.0806609E-2,9.4509065E-2,1.0995975E-2,1.2126563E-1,1.1224301E-1,4.4334132E-2,1.2123314E-2,-1.2393206E-1,3.94091E-3,-3.859293E-2,7.1930796E-2,-2.433964E-2,-6.678408E-2,-1.7122125E-2,-5.265453E-2,-1.3347514E-2,6.6251814E-2,-1.0256961E-2,-5.3931784E-2,-8.3517164E-2,-5.7248205E-2,-3.8594466E-2,-2.3055237E-2,-5.766641E-2,-8.2759276E-2,-1.27662495E-2,3.797097E-2,-3.1700563E-2,-6.141086E-3,-9.504224E-2,-6.746632E-2,-3.850711E-2,-6.0367294E-2,-2.272161E-2,1.6880693E-2,-8.26643E-2,-3.2831248E-2],"split_indices":[0,0,2,2,0,1,2,2,1,0,0,2,2,2,2,2,1,2,1,1,1,0,1,1,2,0,1,2,1,2,1,1,2,1,2,2,1,1,0,2,2,1,1,2,0,2,0,1,1,1,2,0,2,2,2,1,2,1,2,1,1,0,0,0,0,0,0,0,0,0,0,0,0,0,0,0,0,0,0,0,0,0,0,0,0,0,0,0,0,0,0,0,0,0,0,0,0,0,0,0,0,0,0,0,0,0,0,0,0,0,0,0,0,0,0],"split_type":[0,0,0,0,0,0,0,0,0,0,0,0,0,0,0,0,0,0,0,0,0,0,0,0,0,0,0,0,0,0,0,0,0,0,0,0,0,0,0,0,0,0,0,0,0,0,0,0,0,0,0,0,0,0,0,0,0,0,0,0,0,0,0,0,0,0,0,0,0,0,0,0,0,0,0,0,0,0,0,0,0,0,0,0,0,0,0,0,0,0,0,0,0,0,0,0,0,0,0,0,0,0,0,0,0,0,0,0,0,0,0,0,0,0,0],"sum_hessian":[1.5570673E5,5.4471914E4,1.0123482E5,2.8077371E4,2.6394543E4,1.1123695E4,9.0111125E4,1.33361E4,1.4741271E4,1.4485915E4,1.1908628E4,9.15956E3,1.9641354E3,3.577653E4,5.4334598E4,5.498618E3,7.837481E3,1.2865057E4,1.8762146E3,1.3025543E4,1.4603721E3,9.336191E3,2.5724365E3,8.364893E3,7.946675E2,7.137268E2,1.2504087E3,2.915981E4,6.6167217E3,1.6968537E4,3.736606E4,2.8871066E2,5.209907E3,2.6237773E3,5.2137036E3,7.7685444E3,5.0965127E3,1.76835E3,1.07864624E2,6.087791E3,6.937752E3,1.0806318E2,1.3523088E3,7.4024023E3,1.9337897E3,2.5424126E3,3.0023966E1,2.3965938E3,5.9682983E3,2.767825E2,5.17885E2,6.430013E2,6.0740735E2,2.7491857E4,1.6679539E3,3.2224622E3,3.3942593E3,4.691749E2,1.6499361E4,4.898309E3,3.2467752E4,2.1373593E2,7.497474E1,1.4566829E2,5.0642393E3,2.2139043E3,4.0987305E2,3.5465393E3,1.6671644E3,7.2171997E3,5.513446E2,5.321672E2,4.5643457E3,1.71175E3,5.659993E1,5.3115757E3,7.762152E2,6.0128735E3,9.248783E2,1.0560154E2,2.4616394E0,4.8173108E2,8.705778E2,3.406091E3,3.996311E3,1.4397844E2,1.7898113E3,5.7737583E1,2.484675E3,1.9334843E2,2.2032454E3,1.4578053E3,4.510493E3,1.14605255E2,1.6217725E2,3.3684814E2,1.8103687E2,1.973843E2,4.100231E2,1.1586966E4,1.5904891E4,1.2526309E3,4.1532306E2,1.7350652E3,1.487397E3,2.6372058E3,7.570535E2,3.4732666E2,1.2184824E2,1.4017062E4,2.4822998E3,3.6683416E3,1.2299673E3,4.3215506E2,3.2035596E4],"tree_param":{"num_deleted":"0","num_feature":"3","num_nodes":"115","size_leaf_vector":"1"}},{"base_weights":[9.322105E-4,5.7971865E-1,-3.0632555E-1,7.449341E-1,4.070498E-1,-4.6065506E-1,-2.8741136E-1,8.1968546E-1,6.7792225E-1,4.9749213E-1,2.486972E-1,-4.1701034E-1,-6.654872E-1,-2.763207E-1,-4.0139845E-1,7.0421076E-1,9.0438116E-1,6.1327016E-1,7.1047795E-1,6.043436E-1,4.0090382E-1,1.13579154E-1,6.2257963E-1,-4.5270446E-1,-4.5706443E-2,-9.248383E-2,-5.187795E-1,-2.8815317E-1,9.7119963E-1,-5.599229E-1,-3.2681975E-1,1.2215834E-1,6.841899E-1,1.0283076E0,8.450451E-1,6.46558E-1,4.3098825E-1,7.455533E-1,5.6338173E-1,4.3332395E-1,7.2786283E-1,2.7289408E-1,4.6314794E-1,1.4066537E-1,1.0172211E-1,6.400173E-1,-7.6169424E-2,-5.759955E-1,-3.9548492E-1,2.9843575E-1,-2.3214987E-1,-4.3650758E-2,-6.054694E-1,-2.4633235E-1,-3.203857E-1,7.577803E-2,1.1732868E0,-4.5302233E-1,-7.6781195E-1,-2.0770937E-1,-5.1432765E-1,7.09135E-2,4.2117413E-2,1.0002138E-1,1.1714573E-1,7.5006984E-2,1.0501712E-1,5.919751E-2,6.782964E-2,5.1395454E-2,3.2954454E-2,9.223344E-2,7.24194E-2,4.3916944E-2,6.4667694E-2,7.93482E-2,3.4682438E-2,9.908726E-2,6.0748488E-2,3.0434823E-2,-2.2434788E-2,5.233411E-2,2.2249691E-2,-1.046803E-1,1.3228051E-2,-2.0264678E-2,6.682424E-2,-2.200751E-2,-6.042359E-2,-4.784792E-3,-4.749074E-2,-1.2058019E-2,5.8918472E-2,-9.254218E-3,-4.9324755E-2,-7.7168144E-2,-5.2438557E-2,-2.8619215E-2,-6.0016057E-3,-3.898689E-2,-2.783955E-2,1.7009695E-1,1.11139774E-1,-6.690104E-2,-1.9812213E-2,-7.0430316E-2,-8.204096E-2,-3.5003535E-2,2.9610181E-2,-5.8679402E-2,-1.8595688E-2],"categories":[],"categories_nodes":[],"categories_segments":[],"categories_sizes":[],"default_left":[0,0,0,0,0,0,0,0,0,0,0,0,0,0,0,0,0,0,0,0,0,0,0,0,0,0,0,0,0,0,0,0,0,0,0,0,0,0,0,0,0,0,0,0,0,0,0,0,0,0,0,0,0,0,0,0,0,0,0,0,0,0,0,0,0,0,0,0,0,0,0,0,0,0,0,0,0,0,0,0,0,0,0,0,0,0,0,0,0,0,0,0,0,0,0,0,0,0,0,0,0,0,0,0,0,0,0,0,0,0,0],"id":8,"left_children":[1,3,5,7,9,11,13,15,17,19,21,23,25,27,29,31,33,35,37,39,41,43,45,47,49,-1,51,53,55,57,59,-1,61,63,65,67,69,71,73,75,77,79,81,-1,83,85,-1,87,89,91,93,-1,95,97,99,-1,101,103,105,107,109,-1,-1,-1,-1,-1,-1,-1,-1,-1,-1,-1,-1,-1,-1,-1,-1,-1,-1,-1,-1,-1,-1,-1,-1,-1,-1,-1,-1,-1,-1,-1,-1,-1,-1,-1,-1,-1,-1,-1,-1,-1,-1,-1,-1,-1,-1,-1,-1,-1,-1],"loss_changes":[2.7343281E4,1.5207402E3,2.9304395E2,1.3592578E2,3.7329248E2,9.773633E1,1.1300195E2,1.2527832E2,2.981543E1,1.7101904E2,4.788531E2,1.1979773E2,7.272925E1,1.2039648E3,9.358716E1,5.5636963E1,5.371875E1,2.8972778E1,4.88667E1,1.6606958E2,6.934204E1,1.066422E2,6.122876E1,5.795642E1,5.1013657E1,0E0,8.516785E0,1.0880957E2,3.216455E1,5.601483E1,1.2041461E2,0E0,3.415332E1,8.47583E0,9.7120605E1,6.6567383E0,6.121216E0,2.84458E1,1.8788147E1,1.0270593E2,1.4414746E2,4.4718933E1,8.483777E1,0E0,2.4240092E2,5.925409E1,0E0,2.6123169E1,1.556001E2,3.4114372E1,1.874666E1,0E0,7.6400757E0,2.6112842E2,1.32979E2,0E0,1.0905518E1,9.22146E1,2.294342E0,2.3685326E2,4.9757263E1,0E0,0E0,0E0,0E0,0E0,0E0,0E0,0E0,0E0,0E0,0E0,0E0,0E0,0E0,0E0,0E0,0E0,0E0,0E0,0E0,0E0,0E0,0E0,0E0,0E0,0E0,0E0,0E0,0E0,0E0,0E0,0E0,0E0,0E0,0E0,0E0,0E0,0E0,0E0,0E0,0E0,0E0,0E0,0E0,0E0,0E0,0E0,0E0,0E0,0E0],"parents":[2147483647,0,0,1,1,2,2,3,3,4,4,5,5,6,6,7,7,8,8,9,9,10,10,11,11,12,12,13,13,14,14,15,15,16,16,17,17,18,18,19,19,20,20,21,21,22,22,23,23,24,24,26,26,27,27,28,28,29,29,30,30,32,32,33,33,34,34,35,35,36,36,37,37,38,38,39,39,40,40,41,41,42,42,44,44,45,45,47,47,48,48,49,49,50,50,52,52,53,53,54,54,56,56,57,57,58,58,59,59,60,60],"right_children":[2,4,6,8,10,12,14,16,18,20,22,24,26,28,30,32,34,36,38,40,42,44,46,48,50,-1,52,54,56,58,60,-1,62,64,66,68,70,72,74,76,78,80,82,-1,84,86,-1,88,90,92,94,-1,96,98,100,-1,102,104,106,108,110,-1,-1,-1,-1,-1,-1,-1,-1,-1,-1,-1,-1,-1,-1,-1,-1,-1,-1,-1,-1,-1,-1,-1,-1,-1,-1,-1,-1,-1,-1,-1,-1,-1,-1,-1,-1,-1,-1,-1,-1,-1,-1,-1,-1,-1,-1,-1,-1,-1,-1],"split_conditions":[1.3E1,2E0,1.0784736E7,4.9595776E7,5E0,8.222456E6,1.672436E8,2.85893E7,8.668195E7,4.945936E7,1E1,7.45701E6,9.48675E6,1.6244338E8,1.8608624E8,7.419E3,3.3033064E7,7.749892E7,1.672436E8,2.85893E7,8.5848184E7,7.419E3,2.4078922E8,1.728245E6,7.632698E6,-9.248383E-2,1.0287098E7,5.219137E7,1.6604774E8,1.794106E8,2.2010098E8,1.2215834E-1,2.4164412E7,3.2899244E7,4.7205704E7,5.902328E7,8.08278E7,9.008574E7,1.9587019E8,2.337289E6,3.3033064E7,8.08278E7,1.6750821E8,1.4066537E-1,1.432691E6,1.222973E6,-7.6169424E-2,7.419E3,2.16659E6,7.572003E6,8.03212E6,-4.3650758E-2,1.0464934E7,4.7205704E7,8.5848184E7,7.577803E-2,1.6607344E8,1.7266021E8,1.8179051E8,2.155952E8,2.4078922E8,7.09135E-2,4.2117413E-2,1.0002138E-1,1.1714573E-1,7.5006984E-2,1.0501712E-1,5.919751E-2,6.782964E-2,5.1395454E-2,3.2954454E-2,9.223344E-2,7.24194E-2,4.3916944E-2,6.4667694E-2,7.93482E-2,3.4682438E-2,9.908726E-2,6.0748488E-2,3.0434823E-2,-2.2434788E-2,5.233411E-2,2.2249691E-2,-1.046803E-1,1.3228051E-2,-2.0264678E-2,6.682424E-2,-2.200751E-2,-6.042359E-2,-4.784792E-3,-4.749074E-2,-1.2058019E-2,5.8918472E-2,-9.254218E-3,-4.9324755E-2,-7.7168144E-2,-5.2438557E-2,-2.8619215E-2,-6.0016057E-3,-3.898689E-2,-2.783955E-2,1.7009695E-1,1.11139774E-1,-6.690104E-2,-1.9812213E-2,-7.0430316E-2,-8.204096E-2,-3.5003535E-2,2.9610181E-2,-5.8679402E-2,-1.8595688E-2],"split_indices":[0,0,2,2,0,1,1,2,1,1,0,2,2,2,2,1,1,1,1,2,2,1,1,2,2,0,1,2,1,2,1,0,1,1,2,2,2,1,2,1,1,2,2,0,2,2,0,1,2,1,2,0,2,2,2,0,2,2,1,2,1,0,0,0,0,0,0,0,0,0,0,0,0,0,0,0,0,0,0,0,0,0,0,0,0,0,0,0,0,0,0,0,0,0,0,0,0,0,0,0,0,0,0,0,0,0,0,0,0,0,0],"split_type":[0,0,0,0,0,0,0,0,0,0,0,0,0,0,0,0,0,0,0,0,0,0,0,0,0,0,0,0,0,0,0,0,0,0,0,0,0,0,0,0,0,0,0,0,0,0,0,0,0,0,0,0,0,0,0,0,0,0,0,0,0,0,0,0,0,0,0,0,0,0,0,0,0,0,0,0,0,0,0,0,0,0,0,0,0,0,0,0,0,0,0,0,0,0,0,0,0,0,0,0,0,0,0,0,0,0,0,0,0,0,0],"sum_hessian":[1.5375305E5,5.331737E4,1.0043568E5,2.7245057E4,2.6072312E4,1.0962701E4,8.947298E4,1.2873503E4,1.4371555E4,1.6593102E4,9.47921E3,9.039616E3,1.9230851E3,8.154251E4,7.9304683E3,5.450952E3,7.422551E3,4.819802E3,9.551753E3,7.8755083E3,8.717594E3,6.96384E3,2.5153706E3,8.246634E3,7.92983E2,6.9288763E2,1.2301974E3,8.0777125E4,7.653859E2,2.535181E3,5.395287E3,2.0084195E2,5.25011E3,2.397959E3,5.024592E3,4.0733843E3,7.4641766E2,7.7093716E3,1.8423812E3,3.3046008E3,4.5709077E3,2.85384E3,5.863754E3,6.2206944E1,6.901633E3,2.4846099E3,3.0760857E1,2.611203E3,5.6354307E3,2.784366E2,5.145464E2,6.3427856E2,5.959189E2,3.516288E4,4.5614242E4,3.7456583E2,3.9082013E2,1.676349E3,8.5883203E2,3.3006978E3,2.0945894E3,4.7937617E3,4.563486E2,2.0112334E3,3.8672556E2,3.4376047E3,1.5869868E3,1.5049176E3,2.5684666E3,4.0836655E2,3.3805112E2,8.2651483E2,6.882857E3,7.42065E2,1.1003162E3,6.383852E2,2.6662156E3,1.4329257E3,3.1379817E3,2.684419E3,1.6942108E2,4.689589E3,1.1741652E3,1.7800836E2,6.7236245E3,8.032484E1,2.404285E3,1.9260066E2,2.4186023E3,1.048348E3,4.5870825E3,1.1429887E2,1.6413776E2,3.3615848E2,1.783879E2,1.9259842E2,4.0332047E2,2.896556E4,6.1973174E3,1.7179014E4,2.8435229E4,3.8245396E1,3.5257474E2,9.065581E2,7.6979083E2,3.9558035E2,4.6325168E2,2.5738843E3,7.268136E2,1.7152689E3,3.7932028E2],"tree_param":{"num_deleted":"0","num_feature":"3","num_nodes":"111","size_leaf_vector":"1"}},{"base_weights":[1.0282607E-3,5.338649E-1,-2.77898E-1,6.9244325E-1,3.711616E-1,-3.8339546E-1,-2.537061E-1,7.663188E-1,6.2689537E-1,4.739571E-1,2.4817659E-1,-5.2116877E-1,-3.5669604E-1,-1.0052653E-1,-2.711074E-1,6.5049183E-1,8.4979016E-1,5.6492454E-1,6.582748E-1,4.115553E-1,1.0581169E0,1.6172595E-1,5.7393384E-1,-1.9896317E-2,-5.4298604E-1,2.897551E-1,-3.8213113E-1,-3.0505413E-1,9.884019E-2,-5.3727543E-1,-2.614707E-1,1.1021066E0,6.268105E-1,9.683257E-1,7.914178E-1,5.964589E-1,3.9383876E-1,7.33998E-1,5.9452355E-1,5.104154E-1,3.177987E-1,8.3243847E-1,1.075751E0,9.1575015E-1,1.4317103E-1,5.903262E-1,-6.750261E-2,-9.274663E-2,-5.096925E-1,2.2954006E-1,4.3048136E-2,-5.134707E-1,-3.554486E-1,4.2178312E-1,-3.7860408E-1,9.3705344E-1,3.2618716E-2,-4.7863862E-1,-6.511613E-1,1.6771501E-1,-2.727252E-1,1.1801422E-1,8.78618E-2,3.8620753E-3,6.441554E-2,8.755638E-2,1.01996295E-1,6.9784455E-2,9.975412E-2,6.229089E-2,5.32312E-2,4.7101595E-2,3.0005882E-2,6.474439E-2,8.9854665E-2,2.1446977E-2,6.3303225E-2,3.687235E-2,6.1022818E-2,1.9694773E-2,3.6933452E-2,8.5010506E-2,7.7914963E-3,1.0799731E-1,6.895184E-2,4.3578733E-2,1.6847214E-1,2.1125764E-2,-1.3551341E-2,5.0797638E-2,8.458557E-2,-1.1149409E-3,-5.356961E-2,3.5356604E-2,-7.2167516E-3,-2.7769675E-2,-5.5964112E-2,-3.37193E-2,-5.9926506E-2,7.517299E-2,1.9592863E-2,-1.20283626E-1,-3.3214565E-2,5.8686007E-2,1.0821018E-1,-4.2643096E-2,1.5094221E-2,-6.020173E-2,-3.0126601E-2,-9.064695E-2,-6.036526E-2,6.8748236E-4,4.2415973E-2,-7.7468984E-2,-2.5786117E-2],"categories":[],"categories_nodes":[],"categories_segments":[],"categories_sizes":[],"default_left":[0,0,0,0,0,0,0,0,0,0,0,0,0,0,0,0,0,0,0,0,0,0,0,0,0,0,0,0,0,0,0,0,0,0,0,0,0,0,0,0,0,0,0,0,0,0,0,0,0,0,0,0,0,0,0,0,0,0,0,0,0,0,0,0,0,0,0,0,0,0,0,0,0,0,0,0,0,0,0,0,0,0,0,0,0,0,0,0,0,0,0,0,0,0,0,0,0,0,0,0,0,0,0,0,0,0,0,0,0,0,0,0,0,0,0],"id":9,"left_children":[1,3,5,7,9,11,13,15,17,19,21,23,25,27,29,31,33,35,37,39,41,43,45,-1,47,49,51,53,55,57,59,61,63,65,67,69,71,73,75,77,79,81,83,85,87,89,-1,-1,91,93,-1,95,97,99,101,103,105,107,109,111,113,-1,-1,-1,-1,-1,-1,-1,-1,-1,-1,-1,-1,-1,-1,-1,-1,-1,-1,-1,-1,-1,-1,-1,-1,-1,-1,-1,-1,-1,-1,-1,-1,-1,-1,-1,-1,-1,-1,-1,-1,-1,-1,-1,-1,-1,-1,-1,-1,-1,-1,-1,-1,-1,-1],"loss_changes":[2.2573932E4,1.3462979E3,2.5435254E2,1.2749805E2,3.255725E2,6.82168E1,2.1615674E2,1.1953223E2,2.6870117E1,5.110564E2,3.302812E2,2.1096924E1,2.562859E2,3.3745847E2,1.8666699E2,5.498999E1,4.9157715E1,2.5209229E1,4.442993E1,1.1735718E2,4.491333E0,1.2959618E2,5.0761963E1,0E0,3.568463E1,4.9038887E0,5.2351807E1,2.1853693E2,2.3261397E2,1.6675232E1,3.395503E2,3.4640808E0,5.046765E1,1.0489014E1,9.265576E1,6.421875E0,5.1923676E0,5.9860107E1,7.378931E1,8.70343E1,4.047351E1,1.3003845E0,1.2971191E0,8.138777E1,1.717642E2,5.0675232E1,0E0,0E0,3.372284E1,1.5577053E1,0E0,2.7374329E1,5.526953E1,2.7861221E1,1.4166986E2,1.4950806E1,2.111036E2,3.6648468E1,9.905823E0,7.4102776E1,5.108291E2,0E0,0E0,0E0,0E0,0E0,0E0,0E0,0E0,0E0,0E0,0E0,0E0,0E0,0E0,0E0,0E0,0E0,0E0,0E0,0E0,0E0,0E0,0E0,0E0,0E0,0E0,0E0,0E0,0E0,0E0,0E0,0E0,0E0,0E0,0E0,0E0,0E0,0E0,0E0,0E0,0E0,0E0,0E0,0E0,0E0,0E0,0E0,0E0,0E0,0E0,0E0,0E0,0E0,0E0],"parents":[2147483647,0,0,1,1,2,2,3,3,4,4,5,5,6,6,7,7,8,8,9,9,10,10,11,11,12,12,13,13,14,14,15,15,16,16,17,17,18,18,19,19,20,20,21,21,22,22,24,24,25,25,26,26,27,27,28,28,29,29,30,30,31,31,32,32,33,33,34,34,35,35,36,36,37,37,38,38,39,39,40,40,41,41,42,42,43,43,44,44,45,45,48,48,49,49,51,51,52,52,53,53,54,54,55,55,56,56,57,57,58,58,59,59,60,60],"right_children":[2,4,6,8,10,12,14,16,18,20,22,24,26,28,30,32,34,36,38,40,42,44,46,-1,48,50,52,54,56,58,60,62,64,66,68,70,72,74,76,78,80,82,84,86,88,90,-1,-1,92,94,-1,96,98,100,102,104,106,108,110,112,114,-1,-1,-1,-1,-1,-1,-1,-1,-1,-1,-1,-1,-1,-1,-1,-1,-1,-1,-1,-1,-1,-1,-1,-1,-1,-1,-1,-1,-1,-1,-1,-1,-1,-1,-1,-1,-1,-1,-1,-1,-1,-1,-1,-1,-1,-1,-1,-1,-1,-1,-1,-1,-1,-1],"split_conditions":[1.3E1,2E0,2.2032916E7,4.9595776E7,4E0,2.072241E6,3.3033064E7,2.7550174E7,8.668195E7,3E0,1E1,7.419E3,2.16659E6,2.9490198E7,3.672249E7,2.89601E5,3.3033064E7,7.749892E7,1.189632E8,5.254892E7,6.593268E6,1.58048E5,2.4078922E8,-1.9896317E-2,1.58048E5,2.1345E6,5.045296E6,2.2456574E7,2.9677206E7,3.565782E7,3.8679E7,7.419E3,9.16819E5,3.1201124E7,4.7205704E7,6.922118E7,8.08278E7,1.0811974E8,1.2679026E8,2.85893E7,8.5848184E7,6.266606E6,2.2728896E8,9.16819E5,8E0,1.1194507E8,-6.750261E-2,-9.274663E-2,2.89601E5,2.114413E6,4.3048136E-2,2.588844E6,2.1519264E7,2.2163434E7,2.306648E7,2.9553596E7,3.1096384E7,3.4397348E7,3.5763896E7,3.814582E7,4.114953E7,1.1801422E-1,8.78618E-2,3.8620753E-3,6.441554E-2,8.755638E-2,1.01996295E-1,6.9784455E-2,9.975412E-2,6.229089E-2,5.32312E-2,4.7101595E-2,3.0005882E-2,6.474439E-2,8.9854665E-2,2.1446977E-2,6.3303225E-2,3.687235E-2,6.1022818E-2,1.9694773E-2,3.6933452E-2,8.5010506E-2,7.7914963E-3,1.0799731E-1,6.895184E-2,4.3578733E-2,1.6847214E-1,2.1125764E-2,-1.3551341E-2,5.0797638E-2,8.458557E-2,-1.1149409E-3,-5.356961E-2,3.5356604E-2,-7.2167516E-3,-2.7769675E-2,-5.5964112E-2,-3.37193E-2,-5.9926506E-2,7.517299E-2,1.9592863E-2,-1.20283626E-1,-3.3214565E-2,5.8686007E-2,1.0821018E-1,-4.2643096E-2,1.5094221E-2,-6.020173E-2,-3.0126601E-2,-9.064695E-2,-6.036526E-2,6.8748236E-4,4.2415973E-2,-7.7468984E-2,-2.5786117E-2],"split_indices":[0,0,1,2,0,2,1,2,1,0,0,1,2,1,1,2,1,1,2,2,1,1,1,0,1,1,2,1,2,1,1,1,2,1,2,1,2,1,2,2,2,1,2,2,0,2,0,0,2,2,0,2,1,2,2,2,2,2,2,2,2,0,0,0,0,0,0,0,0,0,0,0,0,0,0,0,0,0,0,0,0,0,0,0,0,0,0,0,0,0,0,0,0,0,0,0,0,0,0,0,0,0,0,0,0,0,0,0,0,0,0,0,0,0,0],"split_type":[0,0,0,0,0,0,0,0,0,0,0,0,0,0,0,0,0,0,0,0,0,0,0,0,0,0,0,0,0,0,0,0,0,0,0,0,0,0,0,0,0,0,0,0,0,0,0,0,0,0,0,0,0,0,0,0,0,0,0,0,0,0,0,0,0,0,0,0,0,0,0,0,0,0,0,0,0,0,0,0,0,0,0,0,0,0,0,0,0,0,0,0,0,0,0,0,0,0,0,0,0,0,0,0,0,0,0,0,0,0,0,0,0,0,0],"sum_hessian":[1.5188608E5,5.2188594E4,9.969749E4,2.642767E4,2.5760924E4,1.8594533E4,8.110295E4,1.2419559E4,1.4008111E4,1.4030692E4,1.1730232E4,3.015508E3,1.5579026E4,8.274171E3,7.282879E4,5.205319E3,7.2142397E3,4.715174E3,9.2929375E3,1.2678084E4,1.3526085E3,9.271282E3,2.45895E3,1.9187941E2,2.8236287E3,5.8936975E2,1.4989656E4,4.0839607E3,4.19021E3,2.542749E3,7.028604E4,2.5708292E2,4.948236E3,2.3752603E3,4.8389795E3,3.9792378E3,7.359361E2,4.2428276E3,5.05011E3,6.168922E3,6.509162E3,1.01523766E2,1.2510848E3,2.2150589E2,9.049776E3,2.4276152E3,3.1334612E1,2.2288268E2,2.6007458E3,4.14599E2,1.7477072E2,2.5279688E3,1.24616875E4,3.748522E2,3.7091084E3,3.058386E2,3.8843713E3,1.6819573E3,8.607918E2,1.7956489E3,6.849039E4,1.8737616E2,6.9706764E1,1.4182912E2,4.8064067E3,8.558163E2,1.519444E3,3.331138E3,1.5078417E3,2.8113228E3,1.1679148E3,4.0149728E2,3.344388E2,2.7835754E3,1.4592523E3,4.6522522E2,4.5848843E3,2.5515276E3,3.617394E3,1.9473854E3,4.561777E3,9.907727E1,2.4464958E0,1.2357797E3,1.5305179E1,1.3734625E2,8.415963E1,7.273096E3,1.7766798E3,1.8382029E3,5.894124E2,1.2899893E2,2.471747E3,2.9369498E2,1.2090402E2,4.1512177E2,2.1128472E3,1.159584E4,8.658476E2,1.5137816E2,2.2347403E2,1.9658298E2,3.5125256E3,9.105309E1,2.147855E2,7.955068E2,3.0888645E3,9.905478E2,6.914094E2,1.3221234E2,7.285794E2,1.104157E3,6.9149207E2,1.9683145E3,6.652207E4],"tree_param":{"num_deleted":"0","num_feature":"3","num_nodes":"115","size_leaf_vector":"1"}},{"base_weights":[1.1158169E-3,4.915625E-1,-2.5205898E-1,6.435834E-1,3.3844152E-1,-3.617529E-1,-2.3188096E-1,7.165508E-1,5.7953334E-1,4.1761285E-1,2.0099454E-1,-4.792377E-1,-3.3376107E-1,2.980218E-1,-2.354702E-1,6.043992E-1,8.012933E-1,5.965877E-1,4.64209E-1,5.152915E-1,3.3103475E-1,8.669878E-2,5.284056E-1,-1.79847E-2,-4.9987245E-1,2.6195624E-1,-3.6333948E-1,2.4111392E-2,8.409956E-2,-2.3119983E-1,-5.214371E-1,8.134039E-1,5.5378443E-1,9.3010664E-1,7.413609E-1,5.2168834E-1,6.460444E-1,1.5467711E-1,4.97528E-1,4.6412387E-1,8.754718E-1,2.194883E-1,3.8569683E-1,5.110212E-1,5.3479142E-2,-3.7850472E-1,5.508163E-1,-8.780364E-1,-4.6805072E-1,2.0713428E-1,3.90785E-2,-3.517229E-1,-6.760935E-1,4.131817E-2,-3.8905624E-2,-4.2372575E-1,-2.2531943E-1,-6.887368E-1,-1.4357641E-1,6.250861E-2,1.17765956E-1,2.9382268E-2,5.797987E-2,9.001588E-2,1.08538024E-1,6.4916186E-2,9.4878666E-2,5.611342E-2,4.185054E-2,8.69996E-2,6.234903E-2,4.8952443E-3,2.3982352E-2,4.7318604E-2,8.514082E-2,5.0021686E-2,-3.0410787E-4,9.1450475E-2,6.722682E-2,2.6991416E-2,-5.0494927E-3,4.4333916E-2,1.5870051E-2,-2.9992033E-2,1.5642512E-1,-2.2408498E-2,1.1784489E-2,-6.670793E-2,7.087426E-2,1.2921074E-1,4.915431E-2,-1.0927836E-1,-8.5686736E-2,-1.0046017E-3,-4.9241494E-2,3.194201E-2,-6.496987E-3,-3.6681008E-2,1.0856823E-2,-7.530199E-2,-5.910052E-2,-3.5545263E-2,-5.4925453E-2,-8.897111E-3,-2.4071068E-2,-6.04113E-2,-7.602771E-2,1.448323E-1,-2.6584277E-2],"categories":[],"categories_nodes":[],"categories_segments":[],"categories_sizes":[],"default_left":[0,0,0,0,0,0,0,0,0,0,0,0,0,0,0,0,0,0,0,0,0,0,0,0,0,0,0,0,0,0,0,0,0,0,0,0,0,0,0,0,0,0,0,0,0,0,0,0,0,0,0,0,0,0,0,0,0,0,0,0,0,0,0,0,0,0,0,0,0,0,0,0,0,0,0,0,0,0,0,0,0,0,0,0,0,0,0,0,0,0,0,0,0,0,0,0,0,0,0,0,0,0,0,0,0,0,0,0,0],"id":10,"left_children":[1,3,5,7,9,11,13,15,17,19,21,23,25,27,29,31,33,35,37,39,41,43,45,-1,47,49,51,53,-1,55,57,59,61,63,65,67,69,71,73,75,77,79,81,83,85,87,89,91,93,95,-1,97,99,-1,-1,101,103,105,107,-1,-1,-1,-1,-1,-1,-1,-1,-1,-1,-1,-1,-1,-1,-1,-1,-1,-1,-1,-1,-1,-1,-1,-1,-1,-1,-1,-1,-1,-1,-1,-1,-1,-1,-1,-1,-1,-1,-1,-1,-1,-1,-1,-1,-1,-1,-1,-1,-1,-1],"loss_changes":[1.8635145E4,1.1891807E3,2.1900537E2,1.1941113E2,2.76948E2,5.04093E1,1.5908643E2,1.133833E2,2.658789E1,1.3642896E2,3.4822162E2,1.8174744E1,2.1896814E2,8.3702866E1,1.0129297E2,5.414258E1,5.1972168E1,4.3729004E1,1.8117981E1,1.3943591E2,5.2143127E1,9.722832E1,4.9149048E1,0E0,3.2865967E1,4.0730247E0,4.275818E1,6.0475582E1,0E0,9.254053E1,7.7092804E1,6.8132385E1,2.7946777E1,9.076538E0,8.8509766E1,1.9042114E1,3.562622E1,1.5447335E0,1.3313507E1,1.1206543E2,6.862671E0,3.839673E1,7.513043E1,4.282282E2,1.1436236E2,1.8877808E1,1.0263397E2,3.414917E-2,2.8481567E1,1.2691723E1,0E0,7.929541E1,2.3220062E0,0E0,0E0,2.0579102E1,1.6660938E2,4.662964E0,7.356609E1,0E0,0E0,0E0,0E0,0E0,0E0,0E0,0E0,0E0,0E0,0E0,0E0,0E0,0E0,0E0,0E0,0E0,0E0,0E0,0E0,0E0,0E0,0E0,0E0,0E0,0E0,0E0,0E0,0E0,0E0,0E0,0E0,0E0,0E0,0E0,0E0,0E0,0E0,0E0,0E0,0E0,0E0,0E0,0E0,0E0,0E0,0E0,0E0,0E0,0E0],"parents":[2147483647,0,0,1,1,2,2,3,3,4,4,5,5,6,6,7,7,8,8,9,9,10,10,11,11,12,12,13,13,14,14,15,15,16,16,17,17,18,18,19,19,20,20,21,21,22,22,24,24,25,25,26,26,27,27,29,29,30,30,31,31,32,32,33,33,34,34,35,35,36,36,37,37,38,38,39,39,40,40,41,41,42,42,43,43,44,44,45,45,46,46,47,47,48,48,49,49,51,51,52,52,55,55,56,56,57,57,58,58],"right_children":[2,4,6,8,10,12,14,16,18,20,22,24,26,28,30,32,34,36,38,40,42,44,46,-1,48,50,52,54,-1,56,58,60,62,64,66,68,70,72,74,76,78,80,82,84,86,88,90,92,94,96,-1,98,100,-1,-1,102,104,106,108,-1,-1,-1,-1,-1,-1,-1,-1,-1,-1,-1,-1,-1,-1,-1,-1,-1,-1,-1,-1,-1,-1,-1,-1,-1,-1,-1,-1,-1,-1,-1,-1,-1,-1,-1,-1,-1,-1,-1,-1,-1,-1,-1,-1,-1,-1,-1,-1,-1,-1],"split_conditions":[1.3E1,2E0,1.8004912E7,4.9595776E7,6E0,2.072241E6,1.8690188E7,2.85893E7,1.6750821E8,4.945936E7,1E1,7.419E3,2.16659E6,1.8529108E7,2.3150942E8,2.337289E6,3.3033064E7,8.794776E7,1.7266021E8,4.7205704E7,8.5848184E7,2.337289E6,6.34791E5,-1.79847E-2,1.58048E5,2.1345E6,1.7542584E7,1.8167908E7,8.409956E-2,2.2032916E7,2.4078922E8,2.072241E6,5.045296E6,3.2899244E7,4.7205704E7,7.404252E7,9.008574E7,1.697799E8,2.4078922E8,4.3218316E7,4.8796104E7,7.7171E7,1.6750821E8,2.072241E6,2.7550174E7,1.1E1,4.015E5,8.311E3,2.89601E5,2.114413E6,3.90785E-2,1.7116962E7,1.7731888E7,4.131817E-2,-3.8905624E-2,2.1519264E7,3.2944608E7,2.3685026E8,2.408787E8,6.250861E-2,1.17765956E-1,2.9382268E-2,5.797987E-2,9.001588E-2,1.08538024E-1,6.4916186E-2,9.4878666E-2,5.611342E-2,4.185054E-2,8.69996E-2,6.234903E-2,4.8952443E-3,2.3982352E-2,4.7318604E-2,8.514082E-2,5.0021686E-2,-3.0410787E-4,9.1450475E-2,6.722682E-2,2.6991416E-2,-5.0494927E-3,4.4333916E-2,1.5870051E-2,-2.9992033E-2,1.5642512E-1,-2.2408498E-2,1.1784489E-2,-6.670793E-2,7.087426E-2,1.2921074E-1,4.915431E-2,-1.0927836E-1,-8.5686736E-2,-1.0046017E-3,-4.9241494E-2,3.194201E-2,-6.496987E-3,-3.6681008E-2,1.0856823E-2,-7.530199E-2,-5.910052E-2,-3.5545263E-2,-5.4925453E-2,-8.897111E-3,-2.4071068E-2,-6.04113E-2,-7.602771E-2,1.448323E-1,-2.6584277E-2],"split_indices":[0,0,2,2,0,2,1,2,2,1,0,1,2,2,2,1,1,1,2,2,2,1,2,0,1,1,2,1,0,1,1,2,2,1,2,1,1,2,1,2,2,2,2,2,2,0,1,2,2,2,0,2,1,0,0,1,2,1,2,0,0,0,0,0,0,0,0,0,0,0,0,0,0,0,0,0,0,0,0,0,0,0,0,0,0,0,0,0,0,0,0,0,0,0,0,0,0,0,0,0,0,0,0,0,0,0,0,0,0],"split_type":[0,0,0,0,0,0,0,0,0,0,0,0,0,0,0,0,0,0,0,0,0,0,0,0,0,0,0,0,0,0,0,0,0,0,0,0,0,0,0,0,0,0,0,0,0,0,0,0,0,0,0,0,0,0,0,0,0,0,0,0,0,0,0,0,0,0,0,0,0,0,0,0,0,0,0,0,0,0,0,0,0,0,0,0,0,0,0,0,0,0,0,0,0,0,0,0,0,0,0,0,0,0,0,0,0,0,0,0,0],"sum_hessian":[1.500772E5,5.1095258E4,9.898195E4,2.5638121E4,2.5457135E4,1.5376062E4,8.360589E4,1.1980011E4,1.365811E4,1.615157E4,9.305564E3,2.9554753E3,1.2420586E4,5.619348E2,8.304395E4,5.159653E3,6.820358E3,1.1894893E4,1.7632173E3,7.586933E3,8.564638E3,6.8986006E3,2.4069639E3,1.9119104E2,2.7642844E3,5.8716016E2,1.1833426E4,3.74206E2,1.877288E2,8.1823875E4,1.2200789E3,1.00297595E3,4.1566772E3,2.1610571E3,4.659301E3,4.7352144E3,7.159678E3,1.7190169E2,1.5913156E3,6.6451978E3,9.417358E2,2.8183582E3,5.7462793E3,4.9982556E2,6.398775E3,5.7661057E1,2.349303E3,2.1249055E2,2.551794E3,4.1371512E2,1.7344504E2,1.14116875E4,4.2173846E2,1.9272311E2,1.8148288E2,2.4230027E3,7.9400875E4,8.450889E2,3.7498996E2,6.6295087E2,3.400251E2,3.7923776E2,3.7774395E3,1.8173414E3,3.4371582E2,3.2284229E3,1.4308778E3,3.4224185E3,1.3127961E3,6.516397E2,6.5080386E3,7.738684E1,9.451485E1,1.491087E3,1.0022858E2,6.168548E3,4.7664984E2,7.8705225E2,1.5468355E2,2.3748064E3,4.4355182E2,4.581838E3,1.1644414E3,2.8279834E2,2.1702722E2,1.2040544E3,5.19472E3,4.5872215E1,1.1788843E1,1.7240057E2,2.1769023E3,1.4524671E1,1.9796588E2,1.2896124E2,2.4228325E3,2.9273993E2,1.2097521E2,1.1049708E4,3.6197888E2,2.173698E2,2.0436867E2,1.5719016E3,8.511011E2,8.054477E3,7.13464E4,3.9146994E2,4.5361896E2,2.597333E1,3.4901663E2],"tree_param":{"num_deleted":"0","num_feature":"3","num_nodes":"109","size_leaf_vector":"1"}},{"base_weights":[1.1853632E-3,4.523493E-1,-2.2848417E-1,5.9792286E-1,3.0842045E-1,-3.1193748E-1,-2.0485519E-1,6.697257E-1,5.3556174E-1,3.9859417E-1,2.0232697E-1,-4.4046783E-1,-2.9209587E-1,7.514057E-2,-2.2225809E-1,5.5763257E-1,7.530502E-1,5.519887E-1,4.258969E-1,3.387621E-1,9.88634E-1,1.2948713E-1,4.874437E-1,-1.6253708E-2,-4.5995858E-1,2.3685987E-1,-3.0909675E-1,4.382769E-2,6.141751E-1,-4.451564E-1,-2.1322219E-1,1.1253959E-1,5.373285E-1,8.7573856E-1,6.943289E-1,5.0271326E-1,6.2852323E-1,2.941961E-1,4.971126E-1,4.26415E-1,2.5731307E-1,7.494836E-1,1.0077062E0,1.2107958E0,1.1778041E-1,5.032012E-1,-6.546395E-2,-8.317941E-1,-4.2956954E-1,1.8695076E-1,3.5477784E-2,-2.933144E-1,-4.9619022E-1,8.020734E-2,-3.321395E-1,1.0166019E0,-5.231128E-3,-1.5814876E-2,-4.844194E-1,9.963717E-1,-2.174841E-1,5.5747252E-2,-5.719561E-5,8.1438236E-2,9.6450076E-2,6.035812E-2,9.030833E-2,5.322617E-2,6.2002973E-3,1.0200647E-1,5.8417786E-2,1.5215355E-2,3.5170835E-2,5.99644E-2,3.2129776E-2,2.9015442E-2,5.2428216E-2,1.5778007E-2,3.0014599E-2,7.674596E-2,3.7304775E-3,1.06984906E-1,9.7288154E-2,1.04855254E-1,1.346107E-1,-8.26064E-2,1.3956164E-2,4.23311E-2,7.537835E-2,-1.0509793E-1,-8.104751E-2,-9.0517115E-4,-4.523727E-2,2.8863838E-2,-5.849523E-3,-3.7100703E-2,-2.374795E-2,-5.7012696E-2,-2.6405293E-2,-7.498467E-4,4.2631816E-2,-5.5202592E-2,-1.1621685E-2,6.588628E-2,1.3834235E-1,-6.0249865E-2,-4.263636E-2,8.053387E-2,1.3883318E-1,8.672763E-3,-2.2383964E-2],"categories":[],"categories_nodes":[],"categories_segments":[],"categories_sizes":[],"default_left":[0,0,0,0,0,0,0,0,0,0,0,0,0,0,0,0,0,0,0,0,0,0,0,0,0,0,0,0,0,0,0,0,0,0,0,0,0,0,0,0,0,0,0,0,0,0,0,0,0,0,0,0,0,0,0,0,0,0,0,0,0,0,0,0,0,0,0,0,0,0,0,0,0,0,0,0,0,0,0,0,0,0,0,0,0,0,0,0,0,0,0,0,0,0,0,0,0,0,0,0,0,0,0,0,0,0,0,0,0,0,0],"id":11,"left_children":[1,3,5,7,9,11,13,15,17,19,21,23,25,27,29,31,33,35,37,39,41,43,45,-1,47,49,51,53,55,57,59,-1,61,63,65,67,69,71,73,75,77,79,81,83,85,87,-1,89,91,93,-1,95,97,99,101,103,-1,-1,105,107,109,-1,-1,-1,-1,-1,-1,-1,-1,-1,-1,-1,-1,-1,-1,-1,-1,-1,-1,-1,-1,-1,-1,-1,-1,-1,-1,-1,-1,-1,-1,-1,-1,-1,-1,-1,-1,-1,-1,-1,-1,-1,-1,-1,-1,-1,-1,-1,-1,-1,-1],"loss_changes":[1.5374687E4,1.04854E3,1.9382422E2,1.1106152E2,2.4072461E2,5.5197998E1,3.734192E2,1.0757129E2,2.3764404E1,4.7997363E2,2.401502E2,1.5630554E1,1.6910352E2,7.5673645E1,1.4521533E2,5.6272095E1,4.71521E1,4.3367188E1,1.6173187E1,8.8089355E1,4.9556885E0,1.16497116E2,4.2680298E1,0E0,3.0250061E1,3.381672E0,5.362903E1,5.8016953E1,6.607472E1,3.1587036E1,3.57667E2,0E0,5.1635742E1,1.0880249E1,8.447974E1,9.179321E1,7.810681E1,4.955105E0,2.0138733E1,7.917944E1,2.726413E1,1.2052422E0,1.4624023E0,7.5271606E-1,1.875375E2,4.6161987E1,0E0,9.9487305E-2,2.4027283E1,1.0343873E1,0E0,7.2777466E1,2.4140656E1,1.1737619E2,1.7704937E1,1.9235779E1,0E0,0E0,1.6683777E1,1.7124207E1,1.3361133E2,0E0,0E0,0E0,0E0,0E0,0E0,0E0,0E0,0E0,0E0,0E0,0E0,0E0,0E0,0E0,0E0,0E0,0E0,0E0,0E0,0E0,0E0,0E0,0E0,0E0,0E0,0E0,0E0,0E0,0E0,0E0,0E0,0E0,0E0,0E0,0E0,0E0,0E0,0E0,0E0,0E0,0E0,0E0,0E0,0E0,0E0,0E0,0E0,0E0,0E0],"parents":[2147483647,0,0,1,1,2,2,3,3,4,4,5,5,6,6,7,7,8,8,9,9,10,10,11,11,12,12,13,13,14,14,15,15,16,16,17,17,18,18,19,19,20,20,21,21,22,22,24,24,25,25,26,26,27,27,28,28,29,29,30,30,32,32,33,33,34,34,35,35,36,36,37,37,38,38,39,39,40,40,41,41,42,42,43,43,44,44,45,45,47,47,48,48,49,49,51,51,52,52,53,53,54,54,55,55,58,58,59,59,60,60],"right_children":[2,4,6,8,10,12,14,16,18,20,22,24,26,28,30,32,34,36,38,40,42,44,46,-1,48,50,52,54,56,58,60,-1,62,64,66,68,70,72,74,76,78,80,82,84,86,88,-1,90,92,94,-1,96,98,100,102,104,-1,-1,106,108,110,-1,-1,-1,-1,-1,-1,-1,-1,-1,-1,-1,-1,-1,-1,-1,-1,-1,-1,-1,-1,-1,-1,-1,-1,-1,-1,-1,-1,-1,-1,-1,-1,-1,-1,-1,-1,-1,-1,-1,-1,-1,-1,-1,-1,-1,-1,-1,-1,-1,-1],"split_conditions":[1.3E1,2E0,2.85893E7,4.9595776E7,4E0,2.072241E6,3.2944608E7,2.7550174E7,1.672436E8,3E0,1E1,7.419E3,2.16659E6,3.2899244E7,3.698696E7,7.419E3,3.3033064E7,1.076625E8,1.8971354E8,5.254892E7,6.593268E6,7.419E3,2.4078922E8,-1.6253708E-2,1.58048E5,2.1345E6,2.5967356E7,3.2595756E7,3.29149E7,3.3167288E7,3.7059704E7,1.1253959E-1,2.5967356E7,3.228964E7,4.7205704E7,1.0198368E8,1.0840841E8,1.7266021E8,2.2010098E8,2.85893E7,8.5848184E7,6.266606E6,4.3105184E7,7E0,1.432691E6,1.1194507E8,-6.546395E-2,8.311E3,2.89601E5,2.114413E6,3.5477784E-2,1.0784736E7,2.7550174E7,3.228964E7,3.2797876E7,3.2911482E7,-5.231128E-3,-1.5814876E-2,3.4397348E7,3.704248E7,3.8679E7,5.5747252E-2,-5.719561E-5,8.1438236E-2,9.6450076E-2,6.035812E-2,9.030833E-2,5.322617E-2,6.2002973E-3,1.0200647E-1,5.8417786E-2,1.5215355E-2,3.5170835E-2,5.99644E-2,3.2129776E-2,2.9015442E-2,5.2428216E-2,1.5778007E-2,3.0014599E-2,7.674596E-2,3.7304775E-3,1.06984906E-1,9.7288154E-2,1.04855254E-1,1.346107E-1,-8.26064E-2,1.3956164E-2,4.23311E-2,7.537835E-2,-1.0509793E-1,-8.104751E-2,-9.0517115E-4,-4.523727E-2,2.8863838E-2,-5.849523E-3,-3.7100703E-2,-2.374795E-2,-5.7012696E-2,-2.6405293E-2,-7.498467E-4,4.2631816E-2,-5.5202592E-2,-1.1621685E-2,6.588628E-2,1.3834235E-1,-6.0249865E-2,-4.263636E-2,8.053387E-2,1.3883318E-1,8.672763E-3,-2.2383964E-2],"split_indices":[0,0,2,2,0,2,2,2,1,0,0,1,2,1,2,1,1,2,1,2,1,1,1,0,1,1,1,1,1,2,2,0,1,1,2,1,1,2,1,2,2,1,1,0,2,2,0,2,2,2,0,2,2,1,2,2,0,0,2,1,1,0,0,0,0,0,0,0,0,0,0,0,0,0,0,0,0,0,0,0,0,0,0,0,0,0,0,0,0,0,0,0,0,0,0,0,0,0,0,0,0,0,0,0,0,0,0,0,0,0,0],"split_type":[0,0,0,0,0,0,0,0,0,0,0,0,0,0,0,0,0,0,0,0,0,0,0,0,0,0,0,0,0,0,0,0,0,0,0,0,0,0,0,0,0,0,0,0,0,0,0,0,0,0,0,0,0,0,0,0,0,0,0,0,0,0,0,0,0,0,0,0,0,0,0,0,0,0,0,0,0,0,0,0,0,0,0,0,0,0,0,0,0,0,0,0,0,0,0,0,0,0,0,0,0,0,0,0,0,0,0,0,0,0,0],"sum_hessian":[1.4837564E5,5.0052098E4,9.832355E4,2.48823E4,2.5169797E4,2.1693572E4,7.662998E4,1.1561087E4,1.3321214E4,1.3604203E4,1.1565593E4,2.8982234E3,1.8795348E4,4.4839697E3,7.214601E4,4.932834E3,6.628253E3,1.1582245E4,1.7389691E3,1.2353128E4,1.2510753E3,9.213292E3,2.3523005E3,1.905396E2,2.7076838E3,5.848782E2,1.821047E4,4.2388154E3,2.4515436E2,2.8088499E3,6.933716E4,1.684358E2,4.7643984E3,2.1410242E3,4.4872285E3,7.0504795E3,4.5317656E3,6.121105E2,1.1268588E3,5.947923E3,6.405205E3,9.5380104E1,1.1556952E3,9.758164E1,9.115711E3,2.3208389E3,3.146152E1,2.0257948E2,2.5051042E3,4.1276114E2,1.7211699E2,1.6796188E4,1.4142836E3,3.8655596E3,3.7325583E2,1.5253056E2,9.26238E1,3.386186E2,2.4702312E3,2.4262885E2,6.909453E4,4.59238E3,1.7201846E2,1.2719635E3,8.6906067E2,3.1303323E3,1.3568962E3,6.607273E3,4.432065E2,4.5880487E2,4.072961E3,1.7746259E2,4.3464786E2,7.1024725E2,4.1661148E2,2.4879346E3,3.4599885E3,1.9285099E3,4.4766953E3,9.295619E1,2.4239142E0,4.043792E2,7.51316E2,4.8353302E1,4.9228336E1,2.0478654E2,8.910924E3,1.7618262E3,5.590127E2,1.3676002E1,1.8890349E2,1.289272E2,2.376177E3,2.917245E2,1.2103667E2,7.0210103E3,9.775177E3,1.071538E3,3.4274554E2,3.08483E3,7.807295E2,1.8415929E2,1.8909654E2,7.863687E1,7.389369E1,8.1112054E2,1.6591106E3,1.6517885E2,7.745E1,1.4137131E3,6.768081E4],"tree_param":{"num_deleted":"0","num_feature":"3","num_nodes":"111","size_leaf_vector":"1"}},{"base_weights":[1.2392305E-3,4.1608602E-1,-2.0707598E-1,5.551916E-1,2.810342E-1,-2.8406328E-1,-1.8540287E-1,6.256941E-1,4.9462104E-1,3.5066012E-1,1.619147E-1,-4.2584258E-1,-2.6818725E-1,6.76313E-2,-2.0122023E-1,5.1757735E-1,7.100156E-1,4.356149E-1,5.2491295E-1,4.3945423E-1,2.7345288E-1,6.589039E-2,4.483282E-1,-3.5801625E-1,-6.441211E-1,-2.4942306E-1,-4.13838E-1,3.9412245E-2,5.5328435E-1,-4.0610808E-1,-1.9297577E-1,1.0937573E-1,4.983013E-1,8.4695727E-1,6.513937E-1,4.6356824E-1,2.6403654E-1,5.9890646E-1,4.6365526E-1,2.8583497E-1,5.557533E-1,2.3641631E-1,4.1476166E-1,4.790759E-1,3.4242086E-2,-2.7058113E-1,4.7411263E-1,-1.4686346E-2,-3.8539198E-1,-9.9110626E-2,-5.4056764E-2,-2.6757416E-1,2.6821017E-1,-3.5568756E-1,-5.1829505E-1,7.21436E-2,-3.0042276E-1,9.1530734E-1,-4.7161235E-3,-1.4288537E-2,-4.4250193E-1,8.804999E-1,-1.9684803E-1,6.0441554E-2,4.3132637E-2,8.091306E-2,1.0956436E-1,5.6480337E-2,8.598534E-2,4.067238E-2,4.9561244E-2,-1.0983407E-3,3.0719498E-2,5.1483225E-2,7.62679E-2,8.183016E-3,5.027417E-2,6.419685E-2,2.0158784E-2,8.338719E-2,4.3073963E-2,2.604482E-2,8.452915E-3,9.247604E-2,1.5295739E-2,-2.4922451E-2,1.4394355E-1,-4.667631E-2,6.4307894E-3,-4.2721402E-2,6.27517E-2,1.2166704E-1,4.0663216E-2,-7.879352E-2,-3.2337405E-2,-2.5746321E-2,-7.11343E-2,6.477348E-2,1.3065393E-3,-5.6353997E-2,-2.610206E-2,-7.307493E-2,-2.3968132E-2,-5.1626786E-5,4.1571263E-2,-5.0074648E-2,-1.0480306E-2,5.929184E-2,1.2462205E-1,-5.5259973E-2,-3.8867936E-2,7.137147E-2,1.21971086E-1,7.792014E-3,-2.0263003E-2],"categories":[],"categories_nodes":[],"categories_segments":[],"categories_sizes":[],"default_left":[0,0,0,0,0,0,0,0,0,0,0,0,0,0,0,0,0,0,0,0,0,0,0,0,0,0,0,0,0,0,0,0,0,0,0,0,0,0,0,0,0,0,0,0,0,0,0,0,0,0,0,0,0,0,0,0,0,0,0,0,0,0,0,0,0,0,0,0,0,0,0,0,0,0,0,0,0,0,0,0,0,0,0,0,0,0,0,0,0,0,0,0,0,0,0,0,0,0,0,0,0,0,0,0,0,0,0,0,0,0,0,0,0,0,0],"id":12,"left_children":[1,3,5,7,9,11,13,15,17,19,21,23,25,27,29,31,33,35,37,39,41,43,45,47,49,51,53,55,57,59,61,-1,63,65,67,69,71,73,75,77,79,81,83,85,87,89,91,-1,93,-1,-1,95,97,99,101,103,105,107,-1,-1,109,111,113,-1,-1,-1,-1,-1,-1,-1,-1,-1,-1,-1,-1,-1,-1,-1,-1,-1,-1,-1,-1,-1,-1,-1,-1,-1,-1,-1,-1,-1,-1,-1,-1,-1,-1,-1,-1,-1,-1,-1,-1,-1,-1,-1,-1,-1,-1,-1,-1,-1,-1,-1,-1],"loss_changes":[1.2681286E4,9.213955E2,1.6294531E2,1.0287695E2,2.0639026E2,4.818457E1,3.051167E2,1.0139502E2,2.301123E1,1.075708E2,2.5255785E2,3.1734955E1,5.26427E1,6.145289E1,1.2111548E2,5.3818726E1,4.977124E1,2.105951E1,3.864209E1,1.3034009E2,4.3891113E1,8.994148E1,4.2870514E1,9.478256E0,1.781099E1,1.6073169E2,1.3185486E1,4.7189E1,5.3572258E1,2.6514893E1,2.8687964E2,0E0,3.341333E1,1.6758667E1,7.882678E1,6.713684E0,7.3747787E0,5.3107666E1,7.013153E1,9.435965E1,1.4414355E2,2.4295197E1,2.327381E2,3.4263156E2,9.6297424E1,1.1588462E1,1.1106323E2,0E0,3.6183273E1,0E0,0E0,7.394385E1,5.6134613E1,2.7737549E1,4.6287918E1,9.657701E1,1.4553825E1,1.5655655E1,0E0,0E0,1.4225922E1,1.3165268E1,1.0920215E2,0E0,0E0,0E0,0E0,0E0,0E0,0E0,0E0,0E0,0E0,0E0,0E0,0E0,0E0,0E0,0E0,0E0,0E0,0E0,0E0,0E0,0E0,0E0,0E0,0E0,0E0,0E0,0E0,0E0,0E0,0E0,0E0,0E0,0E0,0E0,0E0,0E0,0E0,0E0,0E0,0E0,0E0,0E0,0E0,0E0,0E0,0E0,0E0,0E0,0E0,0E0,0E0],"parents":[2147483647,0,0,1,1,2,2,3,3,4,4,5,5,6,6,7,7,8,8,9,9,10,10,11,11,12,12,13,13,14,14,15,15,16,16,17,17,18,18,19,19,20,20,21,21,22,22,23,23,24,24,25,25,26,26,27,27,28,28,29,29,30,30,32,32,33,33,34,34,35,35,36,36,37,37,38,38,39,39,40,40,41,41,42,42,43,43,44,44,45,45,46,46,48,48,51,51,52,52,53,53,54,54,55,55,56,56,57,57,60,60,61,61,62,62],"right_children":[2,4,6,8,10,12,14,16,18,20,22,24,26,28,30,32,34,36,38,40,42,44,46,48,50,52,54,56,58,60,62,-1,64,66,68,70,72,74,76,78,80,82,84,86,88,90,92,-1,94,-1,-1,96,98,100,102,104,106,108,-1,-1,110,112,114,-1,-1,-1,-1,-1,-1,-1,-1,-1,-1,-1,-1,-1,-1,-1,-1,-1,-1,-1,-1,-1,-1,-1,-1,-1,-1,-1,-1,-1,-1,-1,-1,-1,-1,-1,-1,-1,-1,-1,-1,-1,-1,-1,-1,-1,-1,-1,-1,-1,-1,-1,-1],"split_conditions":[1.3E1,2E0,2.85893E7,4.9595776E7,6E0,1.496264E6,3.2944608E7,2.85893E7,8.668195E7,4.945936E7,1E1,1.222973E6,2.4164412E7,3.2899244E7,3.698696E7,7.419E3,3.2944608E7,7.813074E7,1.189632E8,2.85893E7,3E0,2.337289E6,1.222973E6,7.419E3,1.260636E6,2.3416052E7,2.700924E7,3.2595756E7,3.29149E7,3.3167288E7,3.7059704E7,1.0937573E-1,7.750659E6,3.2899244E7,4.7205704E7,5.902328E7,7.905591E7,1.0811974E8,1.2679026E8,2.337289E6,3.3033064E7,1.6750821E8,4E0,2.072241E6,1.0464934E7,1.1E1,1.260636E6,-1.4686346E-2,1.58048E5,-9.9110626E-2,-5.4056764E-2,2.2456574E7,2.3646806E7,2.5031656E7,2.7550174E7,3.23334E7,3.2797876E7,3.2911482E7,-4.7161235E-3,-1.4288537E-2,3.4397348E7,3.704248E7,3.8679E7,6.0441554E-2,4.3132637E-2,8.091306E-2,1.0956436E-1,5.6480337E-2,8.598534E-2,4.067238E-2,4.9561244E-2,-1.0983407E-3,3.0719498E-2,5.1483225E-2,7.62679E-2,8.183016E-3,5.027417E-2,6.419685E-2,2.0158784E-2,8.338719E-2,4.3073963E-2,2.604482E-2,8.452915E-3,9.247604E-2,1.5295739E-2,-2.4922451E-2,1.4394355E-1,-4.667631E-2,6.4307894E-3,-4.2721402E-2,6.27517E-2,1.2166704E-1,4.0663216E-2,-7.879352E-2,-3.2337405E-2,-2.5746321E-2,-7.11343E-2,6.477348E-2,1.3065393E-3,-5.6353997E-2,-2.610206E-2,-7.307493E-2,-2.3968132E-2,-5.1626786E-5,4.1571263E-2,-5.0074648E-2,-1.0480306E-2,5.929184E-2,1.2462205E-1,-5.5259973E-2,-3.8867936E-2,7.137147E-2,1.21971086E-1,7.792014E-3,-2.0263003E-2],"split_indices":[0,0,2,2,0,1,2,2,1,1,0,2,1,1,2,1,2,1,2,2,0,1,2,1,1,1,2,1,1,2,2,0,1,1,2,2,1,1,2,1,1,2,0,2,2,0,1,0,1,0,0,1,1,1,2,2,2,2,0,0,2,1,1,0,0,0,0,0,0,0,0,0,0,0,0,0,0,0,0,0,0,0,0,0,0,0,0,0,0,0,0,0,0,0,0,0,0,0,0,0,0,0,0,0,0,0,0,0,0,0,0,0,0,0,0],"split_type":[0,0,0,0,0,0,0,0,0,0,0,0,0,0,0,0,0,0,0,0,0,0,0,0,0,0,0,0,0,0,0,0,0,0,0,0,0,0,0,0,0,0,0,0,0,0,0,0,0,0,0,0,0,0,0,0,0,0,0,0,0,0,0,0,0,0,0,0,0,0,0,0,0,0,0,0,0,0,0,0,0,0,0,0,0,0,0,0,0,0,0,0,0,0,0,0,0,0,0,0,0,0,0,0,0,0,0,0,0,0,0,0,0,0,0],"sum_hessian":[1.4674006E5,4.9053023E4,9.768704E4,2.4162324E4,2.4890697E4,2.1456637E4,7.62304E4,1.1161408E4,1.3000916E4,1.5707588E4,9.183108E3,2.1581023E3,1.9298535E4,4.4846753E3,7.174573E4,4.8937705E3,6.267638E3,4.415424E3,8.585492E3,7.303419E3,8.404169E3,6.878291E3,2.3048179E3,1.6484994E3,5.0960294E2,1.7098453E4,2.2000818E3,4.2394233E3,2.452521E2,2.7734233E3,6.89723E4,1.5661647E2,4.737154E3,1.874748E3,4.39289E3,3.795383E3,6.200409E2,3.884549E3,4.7009434E3,3.1482961E3,4.155123E3,6.6610127E3,1.7431567E3,4.8835947E2,6.3899316E3,7.947373E1,2.225344E3,1.8992732E2,1.4585721E3,1.15159035E2,3.9444388E2,1.6519664E4,5.7878845E2,1.4161353E3,7.8394653E2,3.8676926E3,3.7173074E2,1.5267583E2,9.257628E1,3.3748087E2,2.4359424E3,2.4708997E2,6.872521E4,1.8298838E3,2.9072703E3,1.6309276E3,2.4382047E2,3.1062988E3,1.2865912E3,1.3731647E3,2.4222185E3,8.4204895E1,5.35836E2,2.5695762E3,1.3149729E3,4.3682327E2,4.26412E3,6.010191E2,2.5472769E3,1.2867692E3,2.8683538E3,5.750451E3,9.105616E2,5.9043945E2,1.1527173E3,2.7815656E2,2.1020293E2,3.609343E2,6.028997E3,6.8117935E1,1.13558035E1,1.8396423E2,2.0413798E3,1.9315372E2,1.2654183E3,1.6153206E4,3.6645926E2,2.320614E2,3.4672705E2,4.415992E2,9.745361E2,4.438615E2,3.4008505E2,3.193345E3,6.7434766E2,1.8288655E2,1.888442E2,7.874805E1,7.392778E1,7.9678894E2,1.6391536E3,1.677257E2,7.936427E1,1.4161359E3,6.730907E4],"tree_param":{"num_deleted":"0","num_feature":"3","num_nodes":"115","size_leaf_vector":"1"}},{"base_weights":[1.2771423E-3,3.825299E-1,-1.8758412E-1,5.149908E-1,2.561241E-1,-2.9967803E-1,-1.7435367E-1,5.831875E-1,4.5543915E-1,3.3433646E-1,1.656549E-1,-2.5566384E-1,-5.071059E-1,2.6911882E-1,-1.7693973E-1,4.767554E-1,6.62774E-1,3.9451283E-1,4.8485845E-1,2.7976757E-1,9.1303366E-1,1.0468355E-1,4.1310033E-1,-2.9033035E-1,9.2595324E-2,-7.696808E-1,-3.6161315E-1,-3.3140406E-3,5.063474E-1,-7.0689803E-1,-1.7420042E-1,1.0645404E-1,4.576967E-1,7.92895E-1,6.045305E-1,3.9976138E-1,-9.574458E-2,5.186003E-1,3.4742802E-1,3.5905993E-1,2.1415336E-1,6.764088E-1,9.326532E-1,2.177632E-1,-4.8675254E-4,7.175444E-1,3.5292277E-1,-3.7299982E-1,-2.4307112E-1,4.0922323E-1,-8.274834E-2,-7.201054E-2,-7.960569E-2,-2.8104582E-1,-4.4739306E-1,7.462006E-2,3.1265803E-2,-8.606854E-2,-6.033587E-2,-1.6417035E-1,-2.7680954E-1,4.7978316E-2,1.0913855E-3,6.891378E-2,8.528524E-2,4.1131597E-2,6.856053E-2,1.8617628E-3,4.1051302E-2,4.980274E-2,6.977833E-2,3.236902E-2,7.390751E-2,3.102239E-2,7.078891E-2,1.5805997E-2,2.7579024E-2,4.115763E-2,7.404976E-2,1.0123799E-1,8.878228E-2,-4.8044445E-3,4.502778E-2,-1.6298316E-2,7.677629E-3,-2.4550725E-2,9.775055E-2,-2.6168996E-1,4.1897815E-2,-1.326737E-2,-3.9040726E-2,2.3906546E-2,-3.0849611E-2,2.1855067E-3,6.716129E-2,4.889782E-3,-3.3615332E-2,-3.011844E-2,-2.693811E-2,-6.142325E-2,-3.672623E-2,-1.7535498E-2,9.661307E-2,-4.306062E-2,-2.0470433E-2],"categories":[],"categories_nodes":[],"categories_segments":[],"categories_sizes":[],"default_left":[0,0,0,0,0,0,0,0,0,0,0,0,0,0,0,0,0,0,0,0,0,0,0,0,0,0,0,0,0,0,0,0,0,0,0,0,0,0,0,0,0,0,0,0,0,0,0,0,0,0,0,0,0,0,0,0,0,0,0,0,0,0,0,0,0,0,0,0,0,0,0,0,0,0,0,0,0,0,0,0,0,0,0,0,0,0,0,0,0,0,0,0,0,0,0,0,0,0,0,0,0,0,0,0,0],"id":13,"left_children":[1,3,5,7,9,11,13,15,17,19,21,23,25,27,29,31,33,35,37,39,41,43,45,47,49,51,53,-1,55,57,59,-1,61,63,65,67,-1,69,71,73,75,77,79,81,83,85,87,89,91,93,95,-1,-1,97,99,-1,-1,-1,-1,101,103,-1,-1,-1,-1,-1,-1,-1,-1,-1,-1,-1,-1,-1,-1,-1,-1,-1,-1,-1,-1,-1,-1,-1,-1,-1,-1,-1,-1,-1,-1,-1,-1,-1,-1,-1,-1,-1,-1,-1,-1,-1,-1,-1,-1],"loss_changes":[1.0455178E4,8.0526807E2,1.4395435E2,9.5120605E1,1.7411719E2,9.344678E1,9.96543E1,9.239624E1,2.2290771E1,4.1661462E2,1.7217996E2,1.02132996E2,6.822473E1,3.6151028E1,1.2523364E2,5.2011963E1,4.6962402E1,2.9402588E1,3.9022827E1,6.2692932E1,4.6480103E0,1.0893551E2,4.108487E1,2.9961304E1,4.2584286E1,2.6159668E-1,7.861374E0,0E0,1.2886147E1,6.5459747E0,8.8368164E1,0E0,4.480432E1,1.1433716E1,6.752307E1,1.6689697E1,0E0,2.466626E1,1.5282074E1,9.28197E1,2.2790314E1,1.2346916E0,2.8446655E0,2.7282413E2,5.9610096E1,9.322841E1,3.7106598E2,1.1644989E1,1.5454572E2,2.7766632E1,1.6499155E1,0E0,0E0,5.949402E-2,7.235031E0,0E0,0E0,0E0,0E0,9.8953467E2,8.472742E1,0E0,0E0,0E0,0E0,0E0,0E0,0E0,0E0,0E0,0E0,0E0,0E0,0E0,0E0,0E0,0E0,0E0,0E0,0E0,0E0,0E0,0E0,0E0,0E0,0E0,0E0,0E0,0E0,0E0,0E0,0E0,0E0,0E0,0E0,0E0,0E0,0E0,0E0,0E0,0E0,0E0,0E0,0E0,0E0],"parents":[2147483647,0,0,1,1,2,2,3,3,4,4,5,5,6,6,7,7,8,8,9,9,10,10,11,11,12,12,13,13,14,14,15,15,16,16,17,17,18,18,19,19,20,20,21,21,22,22,23,23,24,24,25,25,26,26,28,28,29,29,30,30,32,32,33,33,34,34,35,35,37,37,38,38,39,39,40,40,41,41,42,42,43,43,44,44,45,45,46,46,47,47,48,48,49,49,50,50,53,53,54,54,59,59,60,60],"right_children":[2,4,6,8,10,12,14,16,18,20,22,24,26,28,30,32,34,36,38,40,42,44,46,48,50,52,54,-1,56,58,60,-1,62,64,66,68,-1,70,72,74,76,78,80,82,84,86,88,90,92,94,96,-1,-1,98,100,-1,-1,-1,-1,102,104,-1,-1,-1,-1,-1,-1,-1,-1,-1,-1,-1,-1,-1,-1,-1,-1,-1,-1,-1,-1,-1,-1,-1,-1,-1,-1,-1,-1,-1,-1,-1,-1,-1,-1,-1,-1,-1,-1,-1,-1,-1,-1,-1,-1],"split_conditions":[1.3E1,2E0,1.0784736E7,5.040585E7,4E0,8.222456E6,1.1234137E7,2.7550174E7,8.5848184E7,3E0,1E1,7.45701E6,9.48675E6,1.1097098E7,1.1863158E7,7.419E3,3.3033064E7,8.5477016E7,1.6750821E8,4.9595776E7,6.593268E6,4.945936E7,7.050788E6,2.072241E6,7.632698E6,8.733955E6,1.0287098E7,-3.3140406E-3,1.1141556E7,1.1501884E7,1.672436E8,1.0645404E-1,2.5565678E7,3.1201124E7,4.114953E7,5.093167E7,-9.574458E-2,1.5295894E8,2.4078922E8,4.7205704E7,1.076625E8,1.222973E6,4.3105184E7,2.7550174E7,8.704125E7,1.222973E6,8.733955E6,7.419E3,2.16659E6,7.572003E6,8.03212E6,-7.201054E-2,-7.960569E-2,9.867251E6,1.0464934E7,7.462006E-2,3.1265803E-2,-8.606854E-2,-6.033587E-2,1.6244338E8,1.8608624E8,4.7978316E-2,1.0913855E-3,6.891378E-2,8.528524E-2,4.1131597E-2,6.856053E-2,1.8617628E-3,4.1051302E-2,4.980274E-2,6.977833E-2,3.236902E-2,7.390751E-2,3.102239E-2,7.078891E-2,1.5805997E-2,2.7579024E-2,4.115763E-2,7.404976E-2,1.0123799E-1,8.878228E-2,-4.8044445E-3,4.502778E-2,-1.6298316E-2,7.677629E-3,-2.4550725E-2,9.775055E-2,-2.6168996E-1,4.1897815E-2,-1.326737E-2,-3.9040726E-2,2.3906546E-2,-3.0849611E-2,2.1855067E-3,6.716129E-2,4.889782E-3,-3.3615332E-2,-3.011844E-2,-2.693811E-2,-6.142325E-2,-3.672623E-2,-1.7535498E-2,9.661307E-2,-4.306062E-2,-2.0470433E-2],"split_indices":[0,0,2,1,0,1,1,2,2,0,0,2,2,1,1,1,1,1,2,2,1,1,1,2,2,2,1,0,2,2,1,0,2,1,2,2,0,1,1,2,2,2,1,2,2,2,2,1,2,1,2,0,0,1,2,0,0,0,0,2,2,0,0,0,0,0,0,0,0,0,0,0,0,0,0,0,0,0,0,0,0,0,0,0,0,0,0,0,0,0,0,0,0,0,0,0,0,0,0,0,0,0,0,0,0],"split_type":[0,0,0,0,0,0,0,0,0,0,0,0,0,0,0,0,0,0,0,0,0,0,0,0,0,0,0,0,0,0,0,0,0,0,0,0,0,0,0,0,0,0,0,0,0,0,0,0,0,0,0,0,0,0,0,0,0,0,0,0,0,0,0,0,0,0,0,0,0,0,0,0,0,0,0,0,0,0,0,0,0,0,0,0,0,0,0,0,0,0,0,0,0,0,0,0,0,0,0,0,0,0,0,0,0],"sum_hessian":[1.4520098E5,4.8100285E4,9.71007E4,2.3486092E4,2.4614193E4,1.0248591E4,8.685212E4,1.0944269E4,1.2541823E4,1.3199916E4,1.1414277E4,8.456446E3,1.792144E3,5.0293243E2,8.634918E4,4.6854053E3,6.258864E3,4.0886965E3,8.453127E3,1.2063827E4,1.1360889E3,9.158915E3,2.2553628E3,7.6910303E3,7.6541614E2,6.374427E2,1.1547013E3,2.2153242E2,2.814E2,4.427159E2,8.590647E4,1.4542847E2,4.5399766E3,1.931381E3,4.327483E3,4.0735864E3,1.5110152E1,6.7846035E3,1.6685234E3,5.4605176E3,6.603309E3,8.970185E1,1.0463871E3,4.4129824E3,4.7459326E3,3.704247E2,1.8849381E3,2.7949658E3,4.8960645E3,2.723267E2,4.9308945E2,2.3119682E2,4.0624585E2,5.9764746E2,5.570539E2,1.24443825E2,1.5695618E2,1.7519122E2,2.6752472E2,7.825923E4,7.647243E3,4.3260474E3,2.1392941E2,7.119075E2,1.2194735E3,1.2809188E3,3.046564E3,1.118334E2,3.961753E3,6.089247E3,6.953565E2,1.5748951E3,9.362832E1,4.791586E3,6.689316E2,3.458983E3,3.144326E3,1.8924135E1,7.077772E1,3.688463E2,6.775408E2,2.0594453E3,2.3535374E3,1.5290303E3,3.216902E3,7.874854E1,2.9167618E2,4.01727E1,1.8447654E3,1.8935516E2,2.6056106E3,5.8468567E2,4.311379E3,1.1041029E2,1.619164E2,3.250369E2,1.6805255E2,2.1010037E2,3.875471E2,1.7857645E2,3.7847742E2,7.749325E4,7.6597095E2,2.4393232E3,5.2079194E3],"tree_param":{"num_deleted":"0","num_feature":"3","num_nodes":"105","size_leaf_vector":"1"}},{"base_weights":[1.2875935E-3,3.5132217E-1,-1.6986528E-1,4.7715813E-1,2.3325169E-1,-2.3633868E-1,-1.507849E-1,5.415219E-1,4.1731113E-1,2.9421043E-1,1.3041334E-1,-3.6139843E-1,-2.2295058E-1,8.749204E-1,-1.5497689E-1,4.4182575E-1,6.145321E-1,2.2842757E-1,4.300555E-1,2.5458774E-1,4.3524626E-1,4.984296E-2,3.804561E-1,-2.971187E-1,-5.721484E-1,-5.2537188E-2,-2.3600335E-1,7.25535E-1,1.1735853E-1,4.880003E-2,-1.6556063E-1,9.370176E-1,4.201226E-1,7.6399827E-1,5.5748993E-1,2.8615248E-1,-2.8410692E-2,4.4961178E-1,3.1789207E-1,3.253784E-1,1.9077206E-1,8.7222475E-1,2.2893856E-1,3.9753434E-1,1.4492467E-2,6.763277E-1,3.2348236E-1,-3.943849E-1,-2.3783232E-1,-9.1971725E-2,-4.7084626E-2,-2.7986258E-2,1.6039327E-1,-3.7892112E-1,-2.1591382E-1,5.567148E-2,